{"learner":{"attributes":{"scikit_learn":"{\"_estimator_type\": \"classifier\"}"},"feature_names":["Industry","Company Size","Annual Revenue","Location","Growth Stage","No. of Repetitive Tasks","Current Workflow Type","Process Complexity","Integration Requirements","Hours Wasted/Week","Error Rate (%)","Budget Range","Making Loss","Contact Role","Decision Authority","Prev Automation Exp","Website Visits","Demo Requested","Emails Opened","Timeline","Use Case Interest"],"feature_types":["int","int","int","int","int","int","int","int","int","int","float","int","int","int","int","int","int","int","int","int","int"],"gradient_booster":{"model":{"cats":{"enc":[],"feature_segments":[],"sorted_idx":[]},"gbtree_model_param":{"num_parallel_tree":"1","num_trees":"900"},"iteration_indptr":[0,3,6,9,12,15,18,21,24,27,30,33,36,39,42,45,48,51,54,57,60,63,66,69,72,75,78,81,84,87,90,93,96,99,102,105,108,111,114,117,120,123,126,129,132,135,138,141,144,147,150,153,156,159,162,165,168,171,174,177,180,183,186,189,192,195,198,201,204,207,210,213,216,219,222,225,228,231,234,237,240,243,246,249,252,255,258,261,264,267,270,273,276,279,282,285,288,291,294,297,300,303,306,309,312,315,318,321,324,327,330,333,336,339,342,345,348,351,354,357,360,363,366,369,372,375,378,381,384,387,390,393,396,399,402,405,408,411,414,417,420,423,426,429,432,435,438,441,444,447,450,453,456,459,462,465,468,471,474,477,480,483,486,489,492,495,498,501,504,507,510,513,516,519,522,525,528,531,534,537,540,543,546,549,552,555,558,561,564,567,570,573,576,579,582,585,588,591,594,597,600,603,606,609,612,615,618,621,624,627,630,633,636,639,642,645,648,651,654,657,660,663,666,669,672,675,678,681,684,687,690,693,696,699,702,705,708,711,714,717,720,723,726,729,732,735,738,741,744,747,750,753,756,759,762,765,768,771,774,777,780,783,786,789,792,795,798,801,804,807,810,813,816,819,822,825,828,831,834,837,840,843,846,849,852,855,858,861,864,867,870,873,876,879,882,885,888,891,894,897,900],"tree_info":[0,1,2,0,1,2,0,1,2,0,1,2,0,1,2,0,1,2,0,1,2,0,1,2,0,1,2,0,1,2,0,1,2,0,1,2,0,1,2,0,1,2,0,1,2,0,1,2,0,1,2,0,1,2,0,1,2,0,1,2,0,1,2,0,1,2,0,1,2,0,1,2,0,1,2,0,1,2,0,1,2,0,1,2,0,1,2,0,1,2,0,1,2,0,1,2,0,1,2,0,1,2,0,1,2,0,1,2,0,1,2,0,1,2,0,1,2,0,1,2,0,1,2,0,1,2,0,1,2,0,1,2,0,1,2,0,1,2,0,1,2,0,1,2,0,1,2,0,1,2,0,1,2,0,1,2,0,1,2,0,1,2,0,1,2,0,1,2,0,1,2,0,1,2,0,1,2,0,1,2,0,1,2,0,1,2,0,1,2,0,1,2,0,1,2,0,1,2,0,1,2,0,1,2,0,1,2,0,1,2,0,1,2,0,1,2,0,1,2,0,1,2,0,1,2,0,1,2,0,1,2,0,1,2,0,1,2,0,1,2,0,1,2,0,1,2,0,1,2,0,1,2,0,1,2,0,1,2,0,1,2,0,1,2,0,1,2,0,1,2,0,1,2,0,1,2,0,1,2,0,1,2,0,1,2,0,1,2,0,1,2,0,1,2,0,1,2,0,1,2,0,1,2,0,1,2,0,1,2,0,1,2,0,1,2,0,1,2,0,1,2,0,1,2,0,1,2,0,1,2,0,1,2,0,1,2,0,1,2,0,1,2,0,1,2,0,1,2,0,1,2,0,1,2,0,1,2,0,1,2,0,1,2,0,1,2,0,1,2,0,1,2,0,1,2,0,1,2,0,1,2,0,1,2,0,1,2,0,1,2,0,1,2,0,1,2,0,1,2,0,1,2,0,1,2,0,1,2,0,1,2,0,1,2,0,1,2,0,1,2,0,1,2,0,1,2,0,1,2,0,1,2,0,1,2,0,1,2,0,1,2,0,1,2,0,1,2,0,1,2,0,1,2,0,1,2,0,1,2,0,1,2,0,1,2,0,1,2,0,1,2,0,1,2,0,1,2,0,1,2,0,1,2,0,1,2,0,1,2,0,1,2,0,1,2,0,1,2,0,1,2,0,1,2,0,1,2,0,1,2,0,1,2,0,1,2,0,1,2,0,1,2,0,1,2,0,1,2,0,1,2,0,1,2,0,1,2,0,1,2,0,1,2,0,1,2,0,1,2,0,1,2,0,1,2,0,1,2,0,1,2,0,1,2,0,1,2,0,1,2,0,1,2,0,1,2,0,1,2,0,1,2,0,1,2,0,1,2,0,1,2,0,1,2,0,1,2,0,1,2,0,1,2,0,1,2,0,1,2,0,1,2,0,1,2,0,1,2,0,1,2,0,1,2,0,1,2,0,1,2,0,1,2,0,1,2,0,1,2,0,1,2,0,1,2,0,1,2,0,1,2,0,1,2,0,1,2,0,1,2,0,1,2,0,1,2,0,1,2,0,1,2,0,1,2,0,1,2,0,1,2,0,1,2,0,1,2,0,1,2,0,1,2,0,1,2,0,1,2,0,1,2,0,1,2,0,1,2,0,1,2,0,1,2,0,1,2,0,1,2,0,1,2,0,1,2,0,1,2,0,1,2,0,1,2,0,1,2,0,1,2,0,1,2,0,1,2,0,1,2,0,1,2,0,1,2,0,1,2,0,1,2,0,1,2,0,1,2,0,1,2,0,1,2,0,1,2,0,1,2,0,1,2,0,1,2,0,1,2,0,1,2,0,1,2,0,1,2,0,1,2,0,1,2,0,1,2,0,1,2,0,1,2,0,1,2,0,1,2,0,1,2,0,1,2,0,1,2,0,1,2,0,1,2,0,1,2,0,1,2,0,1,2,0,1,2,0,1,2,0,1,2,0,1,2,0,1,2,0,1,2,0,1,2,0,1,2,0,1,2,0,1,2,0,1,2,0,1,2,0,1,2,0,1,2,0,1,2,0,1,2,0,1,2,0,1,2,0,1,2],"trees":[{"base_weights":[-2.1991711E-7,6.683152E-1,-3.7571022E-1,3.875951E-1,1.2699729E0,-5.45823E-1,-3.3336528E-2,8.087541E-1,-6.0452703E-2,1.4854827E0,9.015114E-1,-3.4842476E-1,-6.464119E-1,5.6303084E-1,-3.08235E-1,1.1969119E-1,2.569203E-2,4.2400848E-2,-3.3466425E-2,1.5373708E-1,1.040462E-1,1.2780266E-1,5.255121E-2,8.968003E-3,-4.9554702E-2,-4.031953E-2,-6.693887E-2,1.2673734E-1,1.1721419E-2,5.7682833E-3,-5.5842597E-2],"categories":[],"categories_nodes":[],"categories_segments":[],"categories_sizes":[],"default_left":[0,0,0,0,0,0,0,0,0,0,0,0,0,0,0,0,0,0,0,0,0,0,0,0,0,0,0,0,0,0,0],"id":0,"left_children":[1,3,5,7,9,11,13,15,17,19,21,23,25,27,29,-1,-1,-1,-1,-1,-1,-1,-1,-1,-1,-1,-1,-1,-1,-1,-1],"loss_changes":[1.055092E3,2.5490771E2,1.566438E2,1.948848E2,3.6827026E1,3.545459E1,1.4672324E2,1.1371039E2,6.672641E1,5.3674927E0,2.4799545E1,3.928076E1,6.375641E0,8.852721E1,5.6108017E1,0E0,0E0,0E0,0E0,0E0,0E0,0E0,0E0,0E0,0E0,0E0,0E0,0E0,0E0,0E0,0E0],"parents":[2147483647,0,0,1,1,2,2,3,3,4,4,5,5,6,6,7,7,8,8,9,9,10,10,11,11,12,12,13,13,14,14],"right_children":[2,4,6,8,10,12,14,16,18,20,22,24,26,28,30,-1,-1,-1,-1,-1,-1,-1,-1,-1,-1,-1,-1,-1,-1,-1,-1],"split_conditions":[6.2E1,2E0,2E0,1E0,2.1959316E1,9.5E1,9.4E1,2.0939205E1,1.2604003E1,5.5E1,1E0,9.549606E0,3.7048697E0,1.3168541E1,1.4444629E1,1.1969119E-1,2.569203E-2,4.2400848E-2,-3.3466425E-2,1.5373708E-1,1.040462E-1,1.2780266E-1,5.255121E-2,8.968003E-3,-4.9554702E-2,-4.031953E-2,-6.693887E-2,1.2673734E-1,1.1721419E-2,5.7682833E-3,-5.5842597E-2],"split_indices":[9,19,19,19,10,9,9,10,10,9,14,10,10,10,10,0,0,0,0,0,0,0,0,0,0,0,0,0,0,0,0],"split_type":[0,0,0,0,0,0,0,0,0,0,0,0,0,0,0,0,0,0,0,0,0,0,0,0,0,0,0,0,0,0,0],"sum_hessian":[4.200001E3,1.5111604E3,2.6888406E3,1.0315203E3,4.796401E2,1.7959204E3,8.929202E2,5.313001E2,5.0022012E2,3.0072006E2,1.7892004E2,6.077402E2,1.1881803E3,2.814001E2,6.1152014E2,3.112201E2,2.2008006E2,1.8060005E2,3.196201E2,2.6712006E2,3.360001E1,8.820002E1,9.0720024E1,1.5288004E2,4.548601E2,1.0416003E2,1.0840203E3,1.0836003E2,1.7304004E2,2.4864006E2,3.628801E2],"tree_param":{"num_deleted":"0","num_feature":"21","num_nodes":"31","size_leaf_vector":"1"}},{"base_weights":[-2.1991711E-7,2.362094E-2,-1.3526511E-1,7.173903E-2,-1.2757823E-2,-4.0027085E-3,-2.085622E-1,-6.2630284E-3,9.470405E-2,-8.222953E-2,6.245095E-3,-3.384697E-2,2.72727E-1,-1.3821284E-1,-3.2889387E-1,5.4185414E-3,-1.639346E-2,2.5187398E-3,1.2831359E-2,-1.6351325E-2,-2.3833925E-3,2.5313178E-3,-8.586834E-3,-3.6925907E-4,-4.057593E-2,1.726101E-3,1.0142346E-1,2.6177787E-3,-2.353604E-2,4.8223328E-2,-3.4877285E-2],"categories":[],"categories_nodes":[],"categories_segments":[],"categories_sizes":[],"default_left":[0,0,0,0,0,0,0,0,0,0,0,0,0,0,0,0,0,0,0,0,0,0,0,0,0,0,0,0,0,0,0],"id":1,"left_children":[1,3,5,7,9,11,13,15,17,19,21,23,25,27,29,-1,-1,-1,-1,-1,-1,-1,-1,-1,-1,-1,-1,-1,-1,-1,-1],"loss_changes":[1.3425872E1,6.262897E0,6.0095015E0,2.7597618E0,2.6910105E0,1.8663038E0,3.3477535E0,3.356934E0,2.7771587E0,2.07417E0,2.814565E0,2.2847483E0,4.1499534E0,4.0734396E0,2.5410538E0,0E0,0E0,0E0,0E0,0E0,0E0,0E0,0E0,0E0,0E0,0E0,0E0,0E0,0E0,0E0,0E0],"parents":[2147483647,0,0,1,1,2,2,3,3,4,4,5,5,6,6,7,7,8,8,9,9,10,10,11,11,12,12,13,13,14,14],"right_children":[2,4,6,8,10,12,14,16,18,20,22,24,26,28,30,-1,-1,-1,-1,-1,-1,-1,-1,-1,-1,-1,-1,-1,-1,-1,-1],"split_conditions":[2.975977E1,2.78E2,3.6609E4,7.3171096E0,2.2534E4,9E1,3.299433E1,6E0,2E0,1.2757114E1,2.4921143E1,8.5E1,3.1413E4,3E0,6E0,5.4185414E-3,-1.639346E-2,2.5187398E-3,1.2831359E-2,-1.6351325E-2,-2.3833925E-3,2.5313178E-3,-8.586834E-3,-3.6925907E-4,-4.057593E-2,1.726101E-3,1.0142346E-1,2.6177787E-3,-2.353604E-2,4.8223328E-2,-3.4877285E-2],"split_indices":[10,13,11,10,11,5,10,0,6,10,10,5,11,0,13,0,0,0,0,0,0,0,0,0,0,0,0,0,0,0,0],"split_type":[0,0,0,0,0,0,0,0,0,0,0,0,0,0,0,0,0,0,0,0,0,0,0,0,0,0,0,0,0,0,0],"sum_hessian":[4.200001E3,3.576301E3,6.2370013E2,1.5393004E3,2.0370005E3,2.2386006E2,3.998401E2,3.502801E2,1.1890203E3,4.368001E2,1.6002004E3,2.0286005E2,2.1000006E1,2.5368007E2,1.4616003E2,2.5368007E2,9.660002E1,3.880801E2,8.009402E2,1.8186005E2,2.5494006E2,1.3263604E3,2.7384006E2,1.8858005E2,1.4280004E1,1.6380005E1,4.6200013E0,9.450002E1,1.5918004E2,2.9400008E0,1.4322003E2],"tree_param":{"num_deleted":"0","num_feature":"21","num_nodes":"31","size_leaf_vector":"1"}},{"base_weights":[5.09017E-7,-4.2922607E-1,5.6153804E-1,-6.0079587E-1,-1.3070533E-1,1.2734048E-1,7.725837E-1,-6.8338937E-1,-2.954221E-1,-4.6939075E-1,1.8186787E-1,-2.1897763E-1,5.048407E-1,5.219059E-1,1.0081614E0,-7.8913026E-2,-5.782805E-2,-5.5579312E-2,-2.9366477E-3,-6.415435E-2,-1.5941307E-2,-1.6972352E-2,4.684224E-2,-4.963435E-2,6.565594E-3,2.373328E-2,9.191989E-2,2.4126047E-2,8.313737E-2,8.504162E-2,1.1633203E-1],"categories":[],"categories_nodes":[],"categories_segments":[],"categories_sizes":[],"default_left":[0,0,0,0,0,0,0,0,0,0,0,0,0,0,0,0,0,0,0,0,0,0,0,0,0,0,0,0,0,0,0],"id":2,"left_children":[1,3,5,7,9,11,13,15,17,19,21,23,25,27,29,-1,-1,-1,-1,-1,-1,-1,-1,-1,-1,-1,-1,-1,-1,-1,-1],"loss_changes":[1.1574106E3,1.393161E2,1.9053656E2,4.3382507E1,1.0537767E2,8.9224846E1,8.2132996E1,1.4652405E1,2.558981E1,2.5386269E1,5.2264015E1,2.8153732E1,3.5965797E1,5.887529E1,1.6645874E1,0E0,0E0,0E0,0E0,0E0,0E0,0E0,0E0,0E0,0E0,0E0,0E0,0E0,0E0,0E0,0E0],"parents":[2147483647,0,0,1,1,2,2,3,3,4,4,5,5,6,6,7,7,8,8,9,9,10,10,11,11,12,12,13,13,14,14],"right_children":[2,4,6,8,10,12,14,16,18,20,22,24,26,28,30,-1,-1,-1,-1,-1,-1,-1,-1,-1,-1,-1,-1,-1,-1,-1,-1],"split_conditions":[9.4E1,6.2E1,1.2062408E1,2.7493088E1,1E0,1E0,1E0,1E0,1E0,2.207723E1,1.4935712E1,1E0,1.37E2,1E0,1E0,-7.8913026E-2,-5.782805E-2,-5.5579312E-2,-2.9366477E-3,-6.415435E-2,-1.5941307E-2,-1.6972352E-2,4.684224E-2,-4.963435E-2,6.565594E-3,2.373328E-2,9.191989E-2,2.4126047E-2,8.313737E-2,8.504162E-2,1.1633203E-1],"split_indices":[9,9,10,10,17,17,17,17,17,10,10,14,9,14,14,0,0,0,0,0,0,0,0,0,0,0,0,0,0,0,0],"split_type":[0,0,0,0,0,0,0,0,0,0,0,0,0,0,0,0,0,0,0,0,0,0,0,0,0,0,0,0,0,0,0],"sum_hessian":[4.7999995E3,2.7206396E3,2.0793596E3,1.7270398E3,9.9359985E2,6.806399E2,1.3987198E3,1.3583998E3,3.6863995E2,4.7663992E2,5.169599E2,3.5519995E2,3.2543994E2,6.791999E2,7.195199E2,6.739199E2,6.844799E2,1.8575998E2,1.8287997E2,3.0575995E2,1.7087997E2,2.3231996E2,2.8463995E2,1.7951997E2,1.7567998E2,1.9871997E2,1.2671998E2,3.5711993E2,3.2207996E2,3.5999994E2,3.5951996E2],"tree_param":{"num_deleted":"0","num_feature":"21","num_nodes":"31","size_leaf_vector":"1"}},{"base_weights":[-6.90154E-4,6.042922E-1,-3.5072878E-1,8.571311E-1,2.2282831E-1,-4.5968175E-2,-5.070784E-1,1.091482E0,6.1301583E-1,5.342731E-1,-9.217083E-2,3.564493E-1,-3.2594872E-1,-3.017493E-1,-6.1147255E-1,1.25964E-1,9.206825E-2,9.277473E-2,4.1704018E-2,8.0025114E-2,2.0046486E-2,2.0110013E-2,-2.5739312E-2,6.888928E-2,2.5981068E-4,-1.0430905E-2,-5.2940156E-2,-6.697796E-3,-5.4375242E-2,-5.475059E-2,-6.783257E-2],"categories":[],"categories_nodes":[],"categories_segments":[],"categories_sizes":[],"default_left":[0,0,0,0,0,0,0,0,0,0,0,0,0,0,0,0,0,0,0,0,0,0,0,0,0,0,0,0,0,0,0],"id":3,"left_children":[1,3,5,7,9,11,13,15,17,19,21,23,25,27,29,-1,-1,-1,-1,-1,-1,-1,-1,-1,-1,-1,-1,-1,-1,-1,-1],"loss_changes":[8.883658E2,1.4810645E2,1.2660138E2,5.2210693E1,6.0309418E1,1.01761925E2,3.7461517E1,1.2348389E1,2.7678314E1,2.7275337E1,1.4890184E1,4.3596874E1,2.3958595E1,3.3708347E1,4.6034546E0,0E0,0E0,0E0,0E0,0E0,0E0,0E0,0E0,0E0,0E0,0E0,0E0,0E0,0E0,0E0,0E0],"parents":[2147483647,0,0,1,1,2,2,3,3,4,4,5,5,6,6,7,7,8,8,9,9,10,10,11,11,12,12,13,13,14,14],"right_children":[2,4,6,8,10,12,14,16,18,20,22,24,26,28,30,-1,-1,-1,-1,-1,-1,-1,-1,-1,-1,-1,-1,-1,-1,-1,-1],"split_conditions":[6.1E1,2.0939205E1,9.4E1,1E0,1E0,1.3929589E1,1.2186287E1,1E0,2.4E1,3.5E1,2.6E1,1E0,1E0,1E0,1E0,1.25964E-1,9.206825E-2,9.277473E-2,4.1704018E-2,8.0025114E-2,2.0046486E-2,2.0110013E-2,-2.5739312E-2,6.888928E-2,2.5981068E-4,-1.0430905E-2,-5.2940156E-2,-6.697796E-3,-5.4375242E-2,-5.475059E-2,-6.783257E-2],"split_indices":[9,10,9,14,14,10,10,12,9,9,9,14,14,14,14,0,0,0,0,0,0,0,0,0,0,0,0,0,0,0,0],"split_type":[0,0,0,0,0,0,0,0,0,0,0,0,0,0,0,0,0,0,0,0,0,0,0,0,0,0,0,0,0,0,0],"sum_hessian":[4.1930103E3,1.536575E3,2.6564353E3,9.2333215E2,6.1324274E2,9.0116205E2,1.7552733E3,4.693166E2,4.540156E2,3.0801108E2,3.0523166E2,3.69625E2,5.3153705E2,5.92937E2,1.1623363E3,2.3327483E2,2.3604175E2,1.7278838E2,2.8122723E2,1.7064442E2,1.3736665E2,1.099148E2,1.9531683E2,1.9008919E2,1.795358E2,2.5512209E2,2.7641495E2,3.016135E2,2.9132355E2,5.9868726E2,5.6364905E2],"tree_param":{"num_deleted":"0","num_feature":"21","num_nodes":"31","size_leaf_vector":"1"}},{"base_weights":[8.3304354E-4,7.65329E-2,-2.0928217E-1,-9.2003606E-2,1.3516895E-1,-5.5093437E-2,-3.6808035E-1,-2.588443E-1,7.474755E-2,1.6065994E-1,-6.797406E-3,1.5248854E-2,-3.0504218E-1,4.6742212E-2,-4.1127676E-1,-4.041566E-2,-1.2266696E-2,-2.4265718E-2,1.2443461E-2,2.6794422E-2,1.3305497E-2,1.9476159E-2,-2.1391544E-2,2.6411539E-2,-1.4805527E-3,6.571998E-3,-3.844349E-2,1.5941108E-2,-4.407824E-2,-2.9758904E-2,-5.1770043E-2],"categories":[],"categories_nodes":[],"categories_segments":[],"categories_sizes":[],"default_left":[0,0,0,0,0,0,0,0,0,0,0,0,0,0,0,0,0,0,0,0,0,0,0,0,0,0,0,0,0,0,0],"id":4,"left_children":[1,3,5,7,9,11,13,15,17,19,21,23,25,27,29,-1,-1,-1,-1,-1,-1,-1,-1,-1,-1,-1,-1,-1,-1,-1,-1],"loss_changes":[6.677553E1,3.0512077E1,2.7205063E1,2.2198246E1,8.288582E0,9.944193E0,9.831558E0,7.8403664E0,6.33043E0,5.714306E0,1.4634747E1,3.3107708E0,3.681325E0,2.956376E0,5.847748E0,0E0,0E0,0E0,0E0,0E0,0E0,0E0,0E0,0E0,0E0,0E0,0E0,0E0,0E0,0E0,0E0],"parents":[2147483647,0,0,1,1,2,2,3,3,4,4,5,5,6,6,7,7,8,8,9,9,10,10,11,11,12,12,13,13,14,14],"right_children":[2,4,6,8,10,12,14,16,18,20,22,24,26,28,30,-1,-1,-1,-1,-1,-1,-1,-1,-1,-1,-1,-1,-1,-1,-1,-1],"split_conditions":[1.19E2,3.4E1,1E0,1E0,1.07E2,1.51E2,1.0734E4,1E0,1.5036E4,1E0,1E0,2E0,2.0323E4,4E0,1E0,-4.041566E-2,-1.2266696E-2,-2.4265718E-2,1.2443461E-2,2.6794422E-2,1.3305497E-2,1.9476159E-2,-2.1391544E-2,2.6411539E-2,-1.4805527E-3,6.571998E-3,-3.844349E-2,1.5941108E-2,-4.407824E-2,-2.9758904E-2,-5.1770043E-2],"split_indices":[9,9,14,14,9,9,11,12,11,2,14,7,11,1,12,0,0,0,0,0,0,0,0,0,0,0,0,0,0,0,0],"split_type":[0,0,0,0,0,0,0,0,0,0,0,0,0,0,0,0,0,0,0,0,0,0,0,0,0,0,0,0,0,0,0],"sum_hessian":[4.1962095E3,3.0852852E3,1.1109242E3,7.962034E2,2.2890818E3,5.6432587E2,5.4659827E2,3.977188E2,3.9848462E2,1.9405176E3,3.485642E2,4.4112146E2,1.2320443E2,5.154272E1,4.9505554E2,1.9145396E2,2.0626485E2,5.3410515E1,3.450741E2,3.9534344E2,1.5451741E3,1.7668301E2,1.7188118E2,4.6692703E1,3.9442874E2,2.1759644E1,1.01444786E2,4.2413754E1,9.128966E0,2.4119446E2,2.5386108E2],"tree_param":{"num_deleted":"0","num_feature":"21","num_nodes":"31","size_leaf_vector":"1"}},{"base_weights":[-1.2563766E-4,-4.0356928E-1,5.1270026E-1,-5.856265E-1,-1.547205E-1,2.0194355E-1,7.6365864E-1,-6.643639E-1,-3.032229E-1,-3.3620217E-1,1.8778004E-1,-1.1998167E-1,4.0946305E-1,5.7475555E-1,9.0100074E-1,-7.2471544E-2,-5.9445884E-2,-5.3023554E-2,-1.4229111E-2,-4.9647845E-2,-2.0296214E-2,-3.365124E-2,2.5199851E-2,-3.0807927E-2,1.4886762E-2,-6.0411785E-3,4.866382E-2,3.9217535E-2,7.712122E-2,5.55165E-2,9.519803E-2],"categories":[],"categories_nodes":[],"categories_segments":[],"categories_sizes":[],"default_left":[0,0,0,0,0,0,0,0,0,0,0,0,0,0,0,0,0,0,0,0,0,0,0,0,0,0,0,0,0,0,0],"id":5,"left_children":[1,3,5,7,9,11,13,15,17,19,21,23,25,27,29,-1,-1,-1,-1,-1,-1,-1,-1,-1,-1,-1,-1,-1,-1,-1,-1],"loss_changes":[9.9143475E2,1.2141641E2,1.6439398E2,3.423053E1,7.0580795E1,6.3115273E1,2.9757141E1,4.6741943E0,1.2325838E1,1.5743149E1,1.333622E1,1.8796658E1,2.085263E1,1.7417236E1,1.1352905E1,0E0,0E0,0E0,0E0,0E0,0E0,0E0,0E0,0E0,0E0,0E0,0E0,0E0,0E0,0E0,0E0],"parents":[2147483647,0,0,1,1,2,2,3,3,4,4,5,5,6,6,7,7,8,8,9,9,10,10,11,11,12,12,13,13,14,14],"right_children":[2,4,6,8,10,12,14,16,18,20,22,24,26,28,30,-1,-1,-1,-1,-1,-1,-1,-1,-1,-1,-1,-1,-1,-1,-1,-1],"split_conditions":[9.4E1,5.7E1,1.6224356E1,2.7493088E1,2.2313778E1,1.2E2,1.21E2,1.5109748E1,2.6E1,1.0647975E1,1.2709E4,1.0380682E1,1.6295E4,2.596727E1,1.3587E4,-7.2471544E-2,-5.9445884E-2,-5.3023554E-2,-1.4229111E-2,-4.9647845E-2,-2.0296214E-2,-3.365124E-2,2.5199851E-2,-3.0807927E-2,1.4886762E-2,-6.0411785E-3,4.866382E-2,3.9217535E-2,7.712122E-2,5.55165E-2,9.519803E-2],"split_indices":[9,9,10,10,10,9,9,10,9,10,11,10,11,10,11,0,0,0,0,0,0,0,0,0,0,0,0,0,0,0,0],"split_type":[0,0,0,0,0,0,0,0,0,0,0,0,0,0,0,0,0,0,0,0,0,0,0,0,0,0,0,0,0,0,0],"sum_hessian":[4.789939E3,2.680995E3,2.108944E3,1.5474967E3,1.1334984E3,9.430227E2,1.1659214E3,1.2090475E3,3.384492E2,7.4092236E2,3.9257608E2,3.6978955E2,5.7323315E2,4.9301004E2,6.729113E2,6.4383545E2,5.6521204E2,1.3944762E2,1.9900157E2,3.3509988E2,4.0582245E2,4.2375336E1,3.5020074E2,2.1748354E2,1.5230603E2,8.089962E1,4.9233353E2,2.5708252E2,2.3592754E2,8.7977516E1,5.8493384E2],"tree_param":{"num_deleted":"0","num_feature":"21","num_nodes":"31","size_leaf_vector":"1"}},{"base_weights":[-1.3889731E-3,5.3418285E-1,-3.3876023E-1,2.8775036E-1,1.048235E0,-5.120675E-1,2.4754023E-3,6.5584314E-1,-1.14869535E-1,1.3452482E-1,7.560829E-1,-3.7583297E-1,-6.433664E-1,4.37551E-1,-3.211441E-1,1.0910722E-1,2.4306886E-2,2.3795389E-2,-4.957549E-2,1.0694855E-1,4.5123044E-2,-6.887092E-3,-5.379777E-2,-5.16334E-2,-6.7087255E-2,8.6609125E-2,3.947292E-3,-6.4633614E-3,-5.9676956E-2],"categories":[],"categories_nodes":[],"categories_segments":[],"categories_sizes":[],"default_left":[0,0,0,0,0,0,0,0,0,0,0,0,0,0,0,0,0,0,0,0,0,0,0,0,0,0,0,0,0],"id":6,"left_children":[1,3,5,7,9,11,13,15,17,-1,19,21,23,25,27,-1,-1,-1,-1,-1,-1,-1,-1,-1,-1,-1,-1,-1,-1],"loss_changes":[7.54704E2,2.0419125E2,1.5155042E2,1.619917E2,4.43407E1,3.0157532E1,1.2180877E2,1.022964E2,7.0354385E1,0E0,2.4912155E1,4.159588E1,2.672638E0,6.291696E1,3.5037003E1,0E0,0E0,0E0,0E0,0E0,0E0,0E0,0E0,0E0,0E0,0E0,0E0,0E0,0E0],"parents":[2147483647,0,0,1,1,2,2,3,3,4,4,5,5,6,6,7,7,8,8,10,10,11,11,12,12,13,13,14,14],"right_children":[2,4,6,8,10,12,14,16,18,-1,20,22,24,26,28,-1,-1,-1,-1,-1,-1,-1,-1,-1,-1,-1,-1,-1,-1],"split_conditions":[6.2E1,2E0,2E0,1E0,1E0,1E0,1.03E2,1E0,1E0,1.3452482E-1,1E0,9.5E1,7.8E1,1E0,1E0,1.0910722E-1,2.4306886E-2,2.3795389E-2,-4.957549E-2,1.0694855E-1,4.5123044E-2,-6.887092E-3,-5.379777E-2,-5.16334E-2,-6.7087255E-2,8.6609125E-2,3.947292E-3,-6.4633614E-3,-5.9676956E-2],"split_indices":[9,19,19,19,17,17,9,17,17,0,14,9,9,17,17,0,0,0,0,0,0,0,0,0,0,0,0,0,0],"split_type":[0,0,0,0,0,0,0,0,0,0,0,0,0,0,0,0,0,0,0,0,0,0,0,0,0,0,0,0,0],"sum_hessian":[4.174867E3,1.613259E3,2.5616082E3,1.0915422E3,5.2171686E2,1.6984806E3,8.6312756E2,5.698926E2,5.216497E2,2.5691873E2,2.647981E2,8.354687E2,8.630119E2,3.6801474E2,4.951128E2,2.7660114E2,2.932914E2,2.7099533E2,2.5065436E2,1.2933128E2,1.3546681E2,2.8926852E2,5.462002E2,1.5712592E2,7.05886E2,1.7666023E2,1.9135452E2,2.5708832E2,2.3802446E2],"tree_param":{"num_deleted":"0","num_feature":"21","num_nodes":"29","size_leaf_vector":"1"}},{"base_weights":[2.1424978E-3,4.707221E-2,-2.984775E-1,-1.0386867E-1,8.161685E-2,2.4566904E-3,-3.378321E-1,-3.8427866E-1,-6.1893314E-2,1.4089598E-1,-5.53776E-2,-4.6869797E-1,2.696218E-1,-2.777489E-1,-4.159122E-2,-4.664114E-2,-9.048427E-3,-2.924286E-3,-2.5651315E-2,3.7931252E-4,1.6150933E-2,1.0040572E-2,-8.586428E-3,4.9692903E-2,-5.4499816E-2,7.3841237E-3,7.2883256E-2,5.7826233E-3,-3.0377192E-2],"categories":[],"categories_nodes":[],"categories_segments":[],"categories_sizes":[],"default_left":[0,0,0,0,0,0,0,0,0,0,0,0,0,0,0,0,0,0,0,0,0,0,0,0,0,0,0,0,0],"id":7,"left_children":[1,3,5,7,9,11,13,15,17,19,21,23,25,27,-1,-1,-1,-1,-1,-1,-1,-1,-1,-1,-1,-1,-1,-1,-1],"loss_changes":[5.6618374E1,1.902346E1,6.4558372E0,7.9754457E0,2.4111954E1,8.185866E0,2.1457558E0,2.0883675E0,3.7563252E0,5.855137E0,4.269566E0,2.0047364E0,3.6766298E0,2.422638E0,0E0,0E0,0E0,0E0,0E0,0E0,0E0,0E0,0E0,0E0,0E0,0E0,0E0,0E0,0E0],"parents":[2147483647,0,0,1,1,2,2,3,3,4,4,5,5,6,6,7,7,8,8,9,9,10,10,11,11,12,12,13,13],"right_children":[2,4,6,8,10,12,14,16,18,20,22,24,26,28,-1,-1,-1,-1,-1,-1,-1,-1,-1,-1,-1,-1,-1,-1,-1],"split_conditions":[1.39E2,3E1,1.3587E4,1.5036E4,1.07E2,2E0,1.51E2,4.9E1,2.1E1,1.3955E4,1.6295E4,2.7E1,7.3E1,1.1E1,-4.159122E-2,-4.664114E-2,-9.048427E-3,-2.924286E-3,-2.5651315E-2,3.7931252E-4,1.6150933E-2,1.0040572E-2,-8.586428E-3,4.9692903E-2,-5.4499816E-2,7.3841237E-3,7.2883256E-2,5.7826233E-3,-3.0377192E-2],"split_indices":[9,9,11,11,9,2,9,16,18,11,11,13,5,5,0,0,0,0,0,0,0,0,0,0,0,0,0,0,0],"split_type":[0,0,0,0,0,0,0,0,0,0,0,0,0,0,0,0,0,0,0,0,0,0,0,0,0,0,0,0,0],"sum_hessian":[4.189811E3,3.6457695E3,5.4404175E2,6.786108E2,2.9671587E3,6.3027214E1,4.8101456E2,8.7295E1,5.913158E2,2.0709888E3,8.9617E2,2.2533785E1,4.049343E1,2.744107E2,2.0660385E2,6.7763565E1,1.9531433E1,5.0735028E2,8.3965515E1,2.708308E2,1.800158E3,1.4630017E2,7.498698E2,1.246444E0,2.1287342E1,2.9203548E1,1.1289882E1,1.966047E1,2.5475023E2],"tree_param":{"num_deleted":"0","num_feature":"21","num_nodes":"29","size_leaf_vector":"1"}},{"base_weights":[-6.6688756E-4,1.9358768E-1,-4.035403E-1,-8.25178E-2,4.6942136E-1,-6.035648E-1,-2.0754863E-1,-3.3709025E-1,1.5552564E-1,2.1073739E-1,7.253942E-1,-7.1772315E-2,-4.890214E-1,-4.4209382E-1,2.0404484E-2,-5.388956E-2,-1.3311456E-2,-8.094778E-3,4.0052634E-2,2.4943738E-3,3.83124E-2,5.4087143E-2,9.124318E-2,-5.6400757E-2,-4.065345E-2,-5.4772574E-2,-3.2914717E-2,-8.0913305E-3,1.2450214E-2],"categories":[],"categories_nodes":[],"categories_segments":[],"categories_sizes":[],"default_left":[0,0,0,0,0,0,0,0,0,0,0,0,0,0,0,0,0,0,0,0,0,0,0,0,0,0,0,0,0],"id":8,"left_children":[1,3,5,7,9,11,13,15,17,19,21,-1,23,25,27,-1,-1,-1,-1,-1,-1,-1,-1,-1,-1,-1,-1,-1,-1],"loss_changes":[3.7309363E2,2.450025E2,6.067456E1,9.751389E1,1.0640042E2,9.678711E0,4.197218E1,3.1931984E1,4.8224464E1,2.5669456E1,2.7407166E1,0E0,2.1583023E0,4.4355392E0,4.2181225E0,0E0,0E0,0E0,0E0,0E0,0E0,0E0,0E0,0E0,0E0,0E0,0E0,0E0,0E0],"parents":[2147483647,0,0,1,1,2,2,3,3,4,4,5,5,6,6,7,7,8,8,9,9,10,10,12,12,13,13,14,14],"right_children":[2,4,6,8,10,12,14,16,18,20,22,-1,24,26,28,-1,-1,-1,-1,-1,-1,-1,-1,-1,-1,-1,-1,-1,-1],"split_conditions":[2E0,1E0,1E0,1E0,1E0,1E0,1E0,1E0,1E0,1E0,1E0,-7.1772315E-2,1E0,1E0,1E0,-5.388956E-2,-1.3311456E-2,-8.094778E-3,4.0052634E-2,2.4943738E-3,3.83124E-2,5.4087143E-2,9.124318E-2,-5.6400757E-2,-4.065345E-2,-5.4772574E-2,-3.2914717E-2,-8.0913305E-3,1.2450214E-2],"split_indices":[19,19,17,17,17,14,14,14,14,12,14,0,12,12,12,0,0,0,0,0,0,0,0,0,0,0,0,0,0],"split_type":[0,0,0,0,0,0,0,0,0,0,0,0,0,0,0,0,0,0,0,0,0,0,0,0,0,0,0,0,0],"sum_hessian":[4.765362E3,3.2154697E3,1.5498922E3,1.6072935E3,1.6081764E3,7.6602527E2,7.8386694E2,7.7648047E2,8.30813E2,8.0075916E2,8.074172E2,3.810202E2,3.8500507E2,3.8588416E2,3.979828E2,3.8949142E2,3.8698907E2,4.231044E2,4.077086E2,3.8594394E2,4.1481525E2,4.0840012E2,3.9901706E2,1.9861403E2,1.8639104E2,1.974098E2,1.8847435E2,2.017972E2,1.9618561E2],"tree_param":{"num_deleted":"0","num_feature":"21","num_nodes":"29","size_leaf_vector":"1"}},{"base_weights":[-1.7725554E-3,-1.8713927E-1,3.5921112E-1,3.76351E-2,-4.2154723E-1,6.253507E-1,5.8502883E-2,3.2300305E-1,-2.4243408E-1,-2.565826E-1,-5.935374E-1,8.665909E-1,3.7345275E-1,3.5474974E-1,-2.4188283E-1,5.4312754E-2,-4.4494607E-3,-1.7750132E-3,-4.8634037E-2,7.1105487E-3,-4.3729838E-2,-4.8034135E-2,-6.4733185E-2,1.0911565E-1,6.2017806E-2,6.1725434E-2,1.3024412E-2,5.571239E-2,1.5900878E-2,-3.8186205E-3,-4.4980537E-2],"categories":[],"categories_nodes":[],"categories_segments":[],"categories_sizes":[],"default_left":[0,0,0,0,0,0,0,0,0,0,0,0,0,0,0,0,0,0,0,0,0,0,0,0,0,0,0,0,0,0,0],"id":9,"left_children":[1,3,5,7,9,11,13,15,17,19,21,23,25,27,29,-1,-1,-1,-1,-1,-1,-1,-1,-1,-1,-1,-1,-1,-1,-1,-1],"loss_changes":[2.779923E2,1.446424E2,1.1276865E2,1.1214355E2,3.797284E1,4.510898E1,5.907519E1,5.6241776E1,3.8803436E1,4.0752186E1,3.6903687E0,2.0414154E1,2.1710327E1,1.3148037E1,1.3948338E1,0E0,0E0,0E0,0E0,0E0,0E0,0E0,0E0,0E0,0E0,0E0,0E0,0E0,0E0,0E0,0E0],"parents":[2147483647,0,0,1,1,2,2,3,3,4,4,5,5,6,6,7,7,8,8,9,9,10,10,11,11,12,12,13,13,14,14],"right_children":[2,4,6,8,10,12,14,16,18,20,22,24,26,28,30,-1,-1,-1,-1,-1,-1,-1,-1,-1,-1,-1,-1,-1,-1,-1,-1],"split_conditions":[2E0,1E0,1.8111631E1,1E0,1E0,1E0,1E0,2.1817806E1,1.7993145E1,1.2604003E1,1.1553774E1,1E0,1E0,1E0,1E0,5.4312754E-2,-4.4494607E-3,-1.7750132E-3,-4.8634037E-2,7.1105487E-3,-4.3729838E-2,-4.8034135E-2,-6.4733185E-2,1.0911565E-1,6.2017806E-2,6.1725434E-2,1.3024412E-2,5.571239E-2,1.5900878E-2,-3.8186205E-3,-4.4980537E-2],"split_indices":[19,19,10,17,17,14,17,10,10,10,10,17,17,14,14,0,0,0,0,0,0,0,0,0,0,0,0,0,0,0,0],"split_type":[0,0,0,0,0,0,0,0,0,0,0,0,0,0,0,0,0,0,0,0,0,0,0,0,0,0,0,0,0,0,0],"sum_hessian":[4.152445E3,2.7439143E3,1.4085305E3,1.4011691E3,1.3427451E3,7.466415E2,6.6188904E2,6.9394336E2,7.0722577E2,6.866426E2,6.561025E2,3.8014246E2,3.6649902E2,3.3314917E2,3.2873987E2,4.3369183E2,2.6025153E2,3.6867706E2,3.385487E2,2.4428758E2,4.4235498E2,2.14556E2,4.415465E2,1.9709447E2,1.8304799E2,1.8225838E2,1.8424065E2,1.6289146E2,1.702577E2,1.6665536E2,1.620845E2],"tree_param":{"num_deleted":"0","num_feature":"21","num_nodes":"31","size_leaf_vector":"1"}},{"base_weights":[3.3056263E-3,2.4509067E-2,-1.1976117E-1,6.955636E-2,-9.69196E-3,-1.944816E-1,4.4848055E-2,1.3113976E-1,3.847786E-2,1.9807355E-3,-9.419147E-2,-2.0264069E-2,-3.6165896E-1,-1.8472734E-4,3.240827E-1,2.81356E-3,1.7838001E-2,7.93949E-3,-3.3016403E-3,-3.7021078E-3,3.787382E-3,-1.955214E-2,1.2238633E-2,1.1633517E-2,-1.56481E-2,-2.0234426E-2,-5.191114E-2,-1.4478025E-2,1.2043614E-2,8.949491E-2,1.9110847E-2],"categories":[],"categories_nodes":[],"categories_segments":[],"categories_sizes":[],"default_left":[0,0,0,0,0,0,0,0,0,0,0,0,0,0,0,0,0,0,0,0,0,0,0,0,0,0,0,0,0,0,0],"id":10,"left_children":[1,3,5,7,9,11,13,15,17,19,21,23,25,27,29,-1,-1,-1,-1,-1,-1,-1,-1,-1,-1,-1,-1,-1,-1,-1,-1],"loss_changes":[1.0924555E1,5.502575E0,7.5767527E0,2.9448876E0,2.003259E0,1.2323963E1,2.4259076E0,2.5084019E0,3.0033438E0,2.5006528E0,5.433724E0,3.8957098E0,5.313219E0,2.9322696E0,1.8627381E0,0E0,0E0,0E0,0E0,0E0,0E0,0E0,0E0,0E0,0E0,0E0,0E0,0E0,0E0,0E0,0E0],"parents":[2147483647,0,0,1,1,2,2,3,3,4,4,5,5,6,6,7,7,8,8,9,9,10,10,11,11,12,12,13,13,14,14],"right_children":[2,4,6,8,10,12,14,16,18,20,22,24,26,28,30,-1,-1,-1,-1,-1,-1,-1,-1,-1,-1,-1,-1,-1,-1,-1,-1],"split_conditions":[2.975977E1,2.78E2,2E0,1E0,2.6231012E1,1E0,2.2E1,2E0,1.6E1,1.2757114E1,2E0,1E0,1E0,2.95E2,1E0,2.81356E-3,1.7838001E-2,7.93949E-3,-3.3016403E-3,-3.7021078E-3,3.787382E-3,-1.955214E-2,1.2238633E-2,1.1633517E-2,-1.56481E-2,-2.0234426E-2,-5.191114E-2,-1.4478025E-2,1.2043614E-2,8.949491E-2,1.9110847E-2],"split_indices":[10,13,19,19,10,19,18,6,18,10,19,14,17,13,6,0,0,0,0,0,0,0,0,0,0,0,0,0,0,0,0],"split_type":[0,0,0,0,0,0,0,0,0,0,0,0,0,0,0,0,0,0,0,0,0,0,0,0,0,0,0,0,0,0,0],"sum_hessian":[4.1844272E3,3.5701238E3,6.143034E2,1.5403044E3,2.0298193E3,4.2238867E2,1.9191473E2,5.155333E2,1.0247711E3,1.7843124E3,2.4550696E2,2.0738817E2,2.1500049E2,1.6612305E2,2.5791687E1,1.6259706E2,3.5293625E2,6.5169037E2,3.7308078E2,8.551096E2,9.292028E2,1.673203E2,7.818667E1,1.0362165E2,1.0376652E2,1.0800409E2,1.0699641E2,7.546195E1,9.06611E1,3.7901423E0,2.2001545E1],"tree_param":{"num_deleted":"0","num_feature":"21","num_nodes":"31","size_leaf_vector":"1"}},{"base_weights":[-1.3634505E-3,-3.723764E-1,4.534475E-1,-2.3170462E-1,-6.833711E-1,6.972663E-1,-3.429014E-2,-5.099102E-1,4.8539978E-2,-7.301804E-2,-5.6021005E-1,4.771676E-1,9.07534E-1,-3.879961E-1,3.22594E-1,-6.989602E-2,-3.346816E-2,-2.822494E-2,4.836222E-2,-7.3784046E-2,-4.0268883E-2,1.7365374E-2,7.544877E-2,7.96776E-2,1.01622894E-1,-6.3394986E-2,-1.2257686E-2,-5.5135544E-3,6.7459494E-2],"categories":[],"categories_nodes":[],"categories_segments":[],"categories_sizes":[],"default_left":[0,0,0,0,0,0,0,0,0,0,0,0,0,0,0,0,0,0,0,0,0,0,0,0,0,0,0,0,0],"id":11,"left_children":[1,3,5,7,9,11,13,15,17,-1,19,21,23,25,27,-1,-1,-1,-1,-1,-1,-1,-1,-1,-1,-1,-1,-1,-1],"loss_changes":[8.012972E2,1.14255005E2,2.5372885E2,1.4053879E2,4.283844E0,6.539606E1,9.000168E1,2.9729584E1,1.2948528E2,0E0,6.09568E0,5.8541946E1,7.9346924E0,2.3295677E1,4.7231895E1,0E0,0E0,0E0,0E0,0E0,0E0,0E0,0E0,0E0,0E0,0E0,0E0,0E0,0E0],"parents":[2147483647,0,0,1,1,2,2,3,3,4,4,5,5,6,6,7,7,8,8,10,10,11,11,12,12,13,13,14,14],"right_children":[2,4,6,8,10,12,14,16,18,-1,20,22,24,26,28,-1,-1,-1,-1,-1,-1,-1,-1,-1,-1,-1,-1,-1,-1],"split_conditions":[9.4E1,2E0,2E0,1E0,7.1E1,1E0,1E0,1E0,5.7E1,-7.301804E-2,1E0,1E0,1E0,1E0,1E0,-6.989602E-2,-3.346816E-2,-2.822494E-2,4.836222E-2,-7.3784046E-2,-4.0268883E-2,1.7365374E-2,7.544877E-2,7.96776E-2,1.01622894E-1,-6.3394986E-2,-1.2257686E-2,-5.5135544E-3,6.7459494E-2],"split_indices":[9,19,19,19,9,19,17,17,9,0,17,17,17,14,14,0,0,0,0,0,0,0,0,0,0,0,0,0,0],"split_type":[0,0,0,0,0,0,0,0,0,0,0,0,0,0,0,0,0,0,0,0,0,0,0,0,0,0,0,0,0],"sum_hessian":[4.746687E3,2.6142712E3,2.1324158E3,1.8012565E3,8.130148E2,1.4214214E3,7.1099445E2,9.035053E2,8.9775116E2,5.85542E2,2.2747278E2,6.960731E2,7.2534827E2,3.5704343E2,3.5395105E2,4.3317468E2,4.7033066E2,5.1020093E2,3.8755023E2,1.0518064E2,1.2229214E2,3.331176E2,3.6295554E2,3.633906E2,3.6195767E2,1.8459651E2,1.7244691E2,1.711426E2,1.8280844E2],"tree_param":{"num_deleted":"0","num_feature":"21","num_nodes":"29","size_leaf_vector":"1"}},{"base_weights":[-2.8738738E-3,4.3182498E-1,-3.6637375E-1,6.5449214E-1,9.6859306E-2,-9.746875E-2,-4.9618685E-1,8.57013E-1,4.819234E-1,3.426121E-1,-1.9406913E-1,1.8505308E-1,-4.500692E-1,-3.108393E-1,-5.6925386E-1,9.617321E-2,7.173042E-2,6.980323E-2,3.5788424E-2,4.6619616E-2,1.7734876E-2,-1.1737791E-2,-4.037663E-2,3.757402E-2,4.181674E-3,4.1554354E-2,-4.670615E-2,-8.526726E-3,-4.1341946E-2,-4.9714886E-2,-6.2357094E-2],"categories":[],"categories_nodes":[],"categories_segments":[],"categories_sizes":[],"default_left":[0,0,0,0,0,0,0,0,0,0,0,0,0,0,0,0,0,0,0,0,0,0,0,0,0,0,0,0,0,0,0],"id":12,"left_children":[1,3,5,7,9,11,13,15,17,19,21,23,25,27,29,-1,-1,-1,-1,-1,-1,-1,-1,-1,-1,-1,-1,-1,-1,-1,-1],"loss_changes":[6.528935E2,1.4028256E2,7.850116E1,3.908374E1,5.3870403E1,7.318891E1,2.0372406E1,6.898163E0,1.6168106E1,8.256485E0,5.504655E0,1.1131611E1,4.999977E0,9.943268E0,3.9476929E0,0E0,0E0,0E0,0E0,0E0,0E0,0E0,0E0,0E0,0E0,0E0,0E0,0E0,0E0,0E0,0E0],"parents":[2147483647,0,0,1,1,2,2,3,3,4,4,5,5,6,6,7,7,8,8,9,9,10,10,11,11,12,12,13,13,14,14],"right_children":[2,4,6,8,10,12,14,16,18,20,22,24,26,28,30,-1,-1,-1,-1,-1,-1,-1,-1,-1,-1,-1,-1,-1,-1,-1,-1],"split_conditions":[7.1E1,2.0510345E1,1.1420963E1,3.4E1,3.9E1,1.2E2,9.5E1,1.1661995E1,7.733603E0,2.853704E1,6.2E1,9.1E1,6.945325E-1,1.8111631E1,1.22E2,9.617321E-2,7.173042E-2,6.980323E-2,3.5788424E-2,4.6619616E-2,1.7734876E-2,-1.1737791E-2,-4.037663E-2,3.757402E-2,4.181674E-3,4.1554354E-2,-4.670615E-2,-8.526726E-3,-4.1341946E-2,-4.9714886E-2,-6.2357094E-2],"split_indices":[9,10,10,9,9,9,9,10,10,10,9,9,10,10,9,0,0,0,0,0,0,0,0,0,0,0,0,0,0,0,0],"split_type":[0,0,0,0,0,0,0,0,0,0,0,0,0,0,0,0,0,0,0,0,0,0,0,0,0,0,0,0,0,0,0],"sum_hessian":[4.1298965E3,1.8806702E3,2.2492263E3,1.1291309E3,7.515393E2,7.328645E2,1.5163618E3,5.1765826E2,6.1147253E2,4.0730414E2,3.442352E2,4.0712775E2,3.2573676E2,4.3023865E2,1.0861232E3,2.9251733E2,2.2514096E2,2.2129347E2,3.9017905E2,2.3199625E2,1.7530788E2,2.531954E2,9.103982E1,1.7394102E2,2.3318672E2,5.819674E0,3.1991708E2,1.3506474E2,2.9517392E2,4.7101337E2,6.1510986E2],"tree_param":{"num_deleted":"0","num_feature":"21","num_nodes":"31","size_leaf_vector":"1"}},{"base_weights":[4.919159E-3,3.4133025E-2,-8.3487645E-2,7.3181145E-2,1.4112729E-2,-1.5556197E-1,6.889985E-2,4.229401E-2,1.7046478E-1,-1.8750377E-2,4.7619827E-2,-1.2907365E-2,-3.004589E-1,2.9070063E-2,3.449823E-1,-1.1842878E-3,9.431137E-3,-3.0028552E-3,2.4214072E-2,1.3609471E-2,-1.1478022E-2,-1.1046131E-2,2.1783885E-2,1.0559951E-2,-1.2748304E-2,-1.1625368E-2,-4.844858E-2,2.8661016E-2,-4.3677652E-4,4.5708995E-2,1.1846443E-2],"categories":[],"categories_nodes":[],"categories_segments":[],"categories_sizes":[],"default_left":[0,0,0,0,0,0,0,0,0,0,0,0,0,0,0,0,0,0,0,0,0,0,0,0,0,0,0,0,0,0,0],"id":13,"left_children":[1,3,5,7,9,11,13,15,17,19,21,23,25,27,29,-1,-1,-1,-1,-1,-1,-1,-1,-1,-1,-1,-1,-1,-1,-1,-1],"loss_changes":[1.07924E1,2.4542382E0,1.1410206E1,3.1906843E0,2.2884827E0,1.4567362E1,3.6623082E0,2.2796392E0,3.6881318E0,1.5621818E1,2.7711042E1,4.8508015E0,1.1797247E1,2.5239944E0,1.0127535E0,0E0,0E0,0E0,0E0,0E0,0E0,0E0,0E0,0E0,0E0,0E0,0E0,0E0,0E0,0E0,0E0],"parents":[2147483647,0,0,1,1,2,2,3,3,4,4,5,5,6,6,7,7,8,8,9,9,10,10,11,11,12,12,13,13,14,14],"right_children":[2,4,6,8,10,12,14,16,18,20,22,24,26,28,30,-1,-1,-1,-1,-1,-1,-1,-1,-1,-1,-1,-1,-1,-1,-1,-1],"split_conditions":[2.6231012E1,1E0,2E0,6E0,2E0,1E0,2.2E1,1E0,6.746227E0,1.0647975E1,1.3929589E1,1E0,1E0,1E0,4E0,-1.1842878E-3,9.431137E-3,-3.0028552E-3,2.4214072E-2,1.3609471E-2,-1.1478022E-2,-1.1046131E-2,2.1783885E-2,1.0559951E-2,-1.2748304E-2,-1.1625368E-2,-4.844858E-2,2.8661016E-2,-4.3677652E-4,4.5708995E-2,1.1846443E-2],"split_indices":[10,19,19,0,19,19,18,17,10,10,10,14,17,0,6,0,0,0,0,0,0,0,0,0,0,0,0,0,0,0,0],"split_type":[0,0,0,0,0,0,0,0,0,0,0,0,0,0,0,0,0,0,0,0,0,0,0,0,0,0,0,0,0,0,0],"sum_hessian":[4.176617E3,3.1397173E3,1.0368999E3,1.0632571E3,2.0764602E3,7.039389E2,3.32961E2,8.0811786E2,2.5513919E2,1.0485265E3,1.0279338E3,3.552629E2,3.4867596E2,2.9194766E2,4.101333E1,3.9636972E2,4.1174814E2,6.7344086E1,1.877951E2,4.01195E2,6.473315E2,5.3315125E2,4.947826E2,1.7467401E2,1.805889E2,1.7506902E2,1.7360695E2,3.267919E1,2.5926846E2,2.6754274E1,1.4259052E1],"tree_param":{"num_deleted":"0","num_feature":"21","num_nodes":"31","size_leaf_vector":"1"}},{"base_weights":[-1.8422588E-3,-3.6327225E-1,4.2609453E-1,-2.3095402E-1,-6.627878E-1,6.4974385E-1,-2.6888419E-2,-4.9419343E-1,2.8942846E-2,-6.955597E-2,-4.9277064E-1,3.432082E-1,8.3515894E-1,-2.3977685E-1,5.316488E-1,-6.0557675E-2,-1.8003749E-2,-3.2644853E-2,3.6670208E-2,-6.738194E-2,3.8956255E-3,4.933941E-3,6.488227E-2,7.01644E-2,9.549099E-2,-6.0622282E-2,1.2316569E-2,1.0781064E-2,7.4495725E-2],"categories":[],"categories_nodes":[],"categories_segments":[],"categories_sizes":[],"default_left":[0,0,0,0,0,0,0,0,0,0,0,0,0,0,0,0,0,0,0,0,0,0,0,0,0,0,0,0,0],"id":14,"left_children":[1,3,5,7,9,11,13,15,17,-1,19,21,23,25,27,-1,-1,-1,-1,-1,-1,-1,-1,-1,-1,-1,-1,-1,-1],"loss_changes":[7.287849E2,1.0108292E2,2.1858752E2,1.2133269E2,4.01532E0,8.180676E1,8.503473E1,3.0719574E1,1.07341835E2,0E0,1.2525116E1,4.901194E1,1.3708496E1,6.892799E1,1.7763641E1,0E0,0E0,0E0,0E0,0E0,0E0,0E0,0E0,0E0,0E0,0E0,0E0,0E0,0E0],"parents":[2147483647,0,0,1,1,2,2,3,3,4,4,5,5,6,6,7,7,8,8,10,10,11,11,12,12,13,13,14,14],"right_children":[2,4,6,8,10,12,14,16,18,-1,20,22,24,26,28,-1,-1,-1,-1,-1,-1,-1,-1,-1,-1,-1,-1,-1,-1],"split_conditions":[9.3E1,2E0,2E0,4.9E1,2.9037565E1,1.4208836E1,2.5577253E1,2.6110931E1,1E0,-6.955597E-2,7E1,1E0,1E0,1E0,1.19E2,-6.0557675E-2,-1.8003749E-2,-3.2644853E-2,3.6670208E-2,-6.738194E-2,3.8956255E-3,4.933941E-3,6.488227E-2,7.01644E-2,9.549099E-2,-6.0622282E-2,1.2316569E-2,1.0781064E-2,7.4495725E-2],"split_indices":[9,19,19,9,10,10,10,10,19,0,9,19,19,17,9,0,0,0,0,0,0,0,0,0,0,0,0,0,0],"split_type":[0,0,0,0,0,0,0,0,0,0,0,0,0,0,0,0,0,0,0,0,0,0,0,0,0,0,0,0,0],"sum_hessian":[4.7098936E3,2.553441E3,2.1564526E3,1.7722692E3,7.811717E2,1.443383E3,7.130697E2,8.8002484E2,8.922443E2,6.523383E2,1.2883339E2,5.450822E2,8.9830084E2,5.166988E2,1.9637086E2,6.489968E2,2.3102803E2,4.347902E2,4.5745416E2,9.5909676E1,3.2923714E1,2.784731E2,2.6660907E2,4.2798416E2,4.703167E2,2.5677496E2,2.5992386E2,6.6246414E1,1.3012445E2],"tree_param":{"num_deleted":"0","num_feature":"21","num_nodes":"29","size_leaf_vector":"1"}},{"base_weights":[-4.024303E-3,3.9258134E-1,-3.50522E-1,1.753668E-1,8.288039E-1,-4.965905E-1,-9.248393E-2,4.740422E-1,-1.6799077E-1,9.983813E-2,6.58535E-1,-3.9308292E-1,-6.0728854E-1,1.6995715E-1,-4.4264564E-1,7.4824065E-2,1.695387E-2,8.191923E-3,-4.155984E-2,8.349424E-2,2.9434836E-2,-2.1291656E-2,-5.6931693E-2,-4.6363216E-2,-6.243213E-2,4.456651E-2,-1.3616289E-2,-2.5899012E-2,-6.273127E-2],"categories":[],"categories_nodes":[],"categories_segments":[],"categories_sizes":[],"default_left":[0,0,0,0,0,0,0,0,0,0,0,0,0,0,0,0,0,0,0,0,0,0,0,0,0,0,0,0,0],"id":15,"left_children":[1,3,5,7,9,11,13,15,17,-1,19,21,23,25,27,-1,-1,-1,-1,-1,-1,-1,-1,-1,-1,-1,-1,-1,-1],"loss_changes":[5.6296075E2,1.8085028E2,8.2361755E1,1.3098373E2,1.7668915E1,1.5755249E1,7.281353E1,5.6892227E1,3.6824623E1,0E0,2.0289871E1,2.2873085E1,1.3564911E0,3.8306717E1,1.1347237E1,0E0,0E0,0E0,0E0,0E0,0E0,0E0,0E0,0E0,0E0,0E0,0E0,0E0,0E0],"parents":[2147483647,0,0,1,1,2,2,3,3,4,4,5,5,6,6,7,7,8,8,10,10,11,11,12,12,13,13,14,14],"right_children":[2,4,6,8,10,12,14,16,18,-1,20,22,24,26,28,-1,-1,-1,-1,-1,-1,-1,-1,-1,-1,-1,-1,-1,-1],"split_conditions":[7.1E1,2E0,2E0,1E0,1E0,1E0,1.21E2,1E0,1E0,9.983813E-2,4.9E1,1E0,1.1553E4,1E0,1E0,7.4824065E-2,1.695387E-2,8.191923E-3,-4.155984E-2,8.349424E-2,2.9434836E-2,-2.1291656E-2,-5.6931693E-2,-4.6363216E-2,-6.243213E-2,4.456651E-2,-1.3616289E-2,-2.5899012E-2,-6.273127E-2],"split_indices":[9,19,19,19,14,14,9,14,14,0,9,19,11,14,14,0,0,0,0,0,0,0,0,0,0,0,0,0,0],"split_type":[0,0,0,0,0,0,0,0,0,0,0,0,0,0,0,0,0,0,0,0,0,0,0,0,0,0,0,0,0],"sum_hessian":[4.0945542E3,1.9091659E3,2.1853884E3,1.27546E3,6.33706E2,1.394867E3,7.905214E2,6.819091E2,5.9355084E2,3.1506097E2,3.1864502E2,7.2319684E2,6.716701E2,4.521536E2,3.3836786E2,3.5804263E2,3.2386646E2,2.9573505E2,2.9781577E2,2.1379356E2,1.0485147E2,3.5870062E2,3.6449622E2,7.4187E1,5.974831E2,2.3765398E2,2.144996E2,1.7085309E2,1.6751477E2],"tree_param":{"num_deleted":"0","num_feature":"21","num_nodes":"29","size_leaf_vector":"1"}},{"base_weights":[7.0279213E-3,2.7168956E-2,-1.10789105E-1,6.942706E-2,-5.041943E-3,-1.7526767E-1,2.62656E-2,1.237363E-1,4.1786335E-2,5.848187E-3,-8.4421545E-2,-2.3810137E-2,-3.2755664E-1,2.6728225E-1,-2.6435846E-2,1.7868211E-2,8.154567E-4,8.0269575E-3,-2.5845834E-3,-2.301581E-3,4.2162985E-3,-1.7501634E-2,1.02305235E-2,-2.3745904E-2,4.7750743E-3,-1.7631777E-2,-4.827428E-2,-1.3086291E-2,4.0479016E-2,1.4492906E-2,-1.0162994E-2],"categories":[],"categories_nodes":[],"categories_segments":[],"categories_sizes":[],"default_left":[0,0,0,0,0,0,0,0,0,0,0,0,0,0,0,0,0,0,0,0,0,0,0,0,0,0,0,0,0,0,0],"id":16,"left_children":[1,3,5,7,9,11,13,15,17,19,21,23,25,27,29,-1,-1,-1,-1,-1,-1,-1,-1,-1,-1,-1,-1,-1,-1,-1,-1],"loss_changes":[9.8905E0,4.8450623E0,5.3821063E0,2.3059607E0,1.747249E0,9.540252E0,2.4910295E0,3.2931175E0,2.6615357E0,1.8644533E0,4.1427364E0,3.2009637E0,4.7575703E0,1.9789402E0,2.094203E0,0E0,0E0,0E0,0E0,0E0,0E0,0E0,0E0,0E0,0E0,0E0,0E0,0E0,0E0,0E0,0E0],"parents":[2147483647,0,0,1,1,2,2,3,3,4,4,5,5,6,6,7,7,8,8,9,9,10,10,11,11,12,12,13,13,14,14],"right_children":[2,4,6,8,10,12,14,16,18,20,22,24,26,28,30,-1,-1,-1,-1,-1,-1,-1,-1,-1,-1,-1,-1,-1,-1,-1,-1],"split_conditions":[2.975977E1,2.78E2,2E0,1E0,2.6231012E1,1E0,1E0,3.9E1,1.6E1,3.3E1,2E0,1.4E1,1E0,3.0929062E1,1.7E1,1.7868211E-2,8.154567E-4,8.0269575E-3,-2.5845834E-3,-2.301581E-3,4.2162985E-3,-1.7501634E-2,1.02305235E-2,-2.3745904E-2,4.7750743E-3,-1.7631777E-2,-4.827428E-2,-1.3086291E-2,4.0479016E-2,1.4492906E-2,-1.0162994E-2],"split_indices":[10,13,19,19,10,19,2,16,18,16,19,16,17,10,16,0,0,0,0,0,0,0,0,0,0,0,0,0,0,0,0],"split_type":[0,0,0,0,0,0,0,0,0,0,0,0,0,0,0,0,0,0,0,0,0,0,0,0,0,0,0,0,0,0,0],"sum_hessian":[4.165738E3,3.5582224E3,6.075152E2,1.5385775E3,2.019645E3,4.1295718E2,1.9455804E2,5.177708E2,1.0208067E3,1.7768098E3,2.4283516E2,2.0762355E2,2.0533363E2,3.4178722E1,1.6037932E2,3.5056946E2,1.6720135E2,6.5048737E2,3.703193E2,9.9016547E2,7.866444E2,1.6354854E2,7.928661E1,5.151235E1,1.561112E2,1.0507118E2,1.0026245E2,8.786449E0,2.5392273E1,4.86287E1,1.1175062E2],"tree_param":{"num_deleted":"0","num_feature":"21","num_nodes":"31","size_leaf_vector":"1"}},{"base_weights":[-2.7468028E-3,-3.8488021E-1,3.5305768E-1,-5.062594E-1,-1.6540322E-1,1.12419896E-1,5.9600407E-1,-5.9222174E-1,-3.118164E-1,-4.2502925E-1,6.0516577E-2,-6.915451E-2,4.283068E-1,4.2798162E-1,7.493714E-1,-6.4443074E-2,-5.0198264E-2,-4.7209885E-2,-1.55756725E-2,-7.057314E-2,-3.7104897E-2,-1.646545E-2,2.993925E-2,-2.7417943E-2,1.3261044E-2,-6.0254784E-4,4.9756728E-2,2.616408E-2,5.77435E-2,4.6175834E-2,7.907858E-2],"categories":[],"categories_nodes":[],"categories_segments":[],"categories_sizes":[],"default_left":[0,0,0,0,0,0,0,0,0,0,0,0,0,0,0,0,0,0,0,0,0,0,0,0,0,0,0,0,0,0,0],"id":17,"left_children":[1,3,5,7,9,11,13,15,17,19,21,23,25,27,29,-1,-1,-1,-1,-1,-1,-1,-1,-1,-1,-1,-1,-1,-1,-1,-1],"loss_changes":[6.3381366E2,5.979312E1,1.4105844E2,2.3997742E1,4.7059162E1,6.965969E1,3.0627747E1,4.3977966E0,1.1073517E1,5.393425E0,2.3158926E1,3.1960564E1,1.333667E1,1.4154572E1,7.0977783E0,0E0,0E0,0E0,0E0,0E0,0E0,0E0,0E0,0E0,0E0,0E0,0E0,0E0,0E0,0E0,0E0],"parents":[2147483647,0,0,1,1,2,2,3,3,4,4,5,5,6,6,7,7,8,8,9,9,10,10,11,11,12,12,13,13,14,14],"right_children":[2,4,6,8,10,12,14,16,18,20,22,24,26,28,30,-1,-1,-1,-1,-1,-1,-1,-1,-1,-1,-1,-1,-1,-1,-1,-1],"split_conditions":[8.5E1,2.2844664E1,1.8111631E1,6.2E1,4.2E1,1.33E2,1.21E2,4.1E1,1E0,1.7473E4,1E0,1E0,1.5899E4,2.596727E1,1.3587E4,-6.4443074E-2,-5.0198264E-2,-4.7209885E-2,-1.55756725E-2,-7.057314E-2,-3.7104897E-2,-1.646545E-2,2.993925E-2,-2.7417943E-2,1.3261044E-2,-6.0254784E-4,4.9756728E-2,2.616408E-2,5.77435E-2,4.6175834E-2,7.907858E-2],"split_indices":[9,10,10,9,9,9,9,9,12,11,12,12,11,10,11,0,0,0,0,0,0,0,0,0,0,0,0,0,0,0,0],"split_type":[0,0,0,0,0,0,0,0,0,0,0,0,0,0,0,0,0,0,0,0,0,0,0,0,0,0,0,0,0,0,0],"sum_hessian":[4.659602E3,2.2466365E3,2.4129656E3,1.445766E3,8.0087054E2,1.2129774E3,1.1999883E3,1.0011267E3,4.4463925E2,3.722273E2,4.2864325E2,7.7073413E2,4.4224326E2,5.744437E2,6.255445E2,6.3031116E2,3.7081558E2,2.1835286E2,2.2628639E2,5.8088444E1,3.1413885E2,2.208112E2,2.0783206E2,3.8210074E2,3.886334E2,6.094848E1,3.8129477E2,2.7316412E2,3.0127957E2,8.026591E1,5.452786E2],"tree_param":{"num_deleted":"0","num_feature":"21","num_nodes":"31","size_leaf_vector":"1"}},{"base_weights":[-5.0267596E-3,-1.7093758E-1,3.0207092E-1,2.9871834E-2,-3.91285E-1,4.9294063E-1,1.025046E-1,2.527351E-1,-2.1203837E-1,-5.1327836E-2,-4.4747186E-1,8.3562493E-1,4.3192938E-1,5.300943E-1,2.7102828E-2,6.471133E-2,1.8025378E-2,9.767919E-3,-2.5807187E-2,1.4789472E-2,-2.635025E-2,-3.3973586E-2,-5.621196E-2,-3.7593983E-2,8.5258186E-2,1.4901628E-2,4.635961E-2,3.995516E-2,7.122067E-2,-3.7588213E-2,4.1976105E-3],"categories":[],"categories_nodes":[],"categories_segments":[],"categories_sizes":[],"default_left":[0,0,0,0,0,0,0,0,0,0,0,0,0,0,0,0,0,0,0,0,0,0,0,0,0,0,0,0,0,0,0],"id":18,"left_children":[1,3,5,7,9,11,13,15,17,19,21,23,25,27,29,-1,-1,-1,-1,-1,-1,-1,-1,-1,-1,-1,-1,-1,-1,-1,-1],"loss_changes":[2.0659969E2,1.1649798E2,5.41259E1,7.436105E1,2.3954697E1,1.4833008E1,2.2443567E1,2.04029E1,9.455687E0,7.612667E0,1.3113342E1,2.554947E0,5.4761276E0,2.1965675E0,3.571235E0,0E0,0E0,0E0,0E0,0E0,0E0,0E0,0E0,0E0,0E0,0E0,0E0,0E0,0E0,0E0,0E0],"parents":[2147483647,0,0,1,1,2,2,3,3,4,4,5,5,6,6,7,7,8,8,9,9,10,10,11,11,12,12,13,13,14,14],"right_children":[2,4,6,8,10,12,14,16,18,20,22,24,26,28,30,-1,-1,-1,-1,-1,-1,-1,-1,-1,-1,-1,-1,-1,-1,-1,-1],"split_conditions":[2E0,1E0,1E0,1E0,1.5036E4,1.5036E4,1.5036E4,1.706E4,1.3955E4,1E0,1E0,1.3E1,7.1E1,3E0,1.8208E4,6.471133E-2,1.8025378E-2,9.767919E-3,-2.5807187E-2,1.4789472E-2,-2.635025E-2,-3.3973586E-2,-5.621196E-2,-3.7593983E-2,8.5258186E-2,1.4901628E-2,4.635961E-2,3.995516E-2,7.122067E-2,-3.7588213E-2,4.1976105E-3],"split_indices":[19,19,14,14,11,11,11,11,11,14,14,13,13,3,11,0,0,0,0,0,0,0,0,0,0,0,0,0,0,0,0],"split_type":[0,0,0,0,0,0,0,0,0,0,0,0,0,0,0,0,0,0,0,0,0,0,0,0,0,0,0,0,0,0,0],"sum_hessian":[4.05287E3,2.6315874E3,1.4212828E3,1.3772872E3,1.2543002E3,7.257189E2,6.9556396E2,7.168417E2,6.604455E2,1.7817435E2,1.0761257E3,1.0776048E2,6.1795844E2,1.033657E2,5.921983E2,1.10060974E2,6.067807E2,8.5315186E1,5.751303E2,9.204817E1,8.6126175E1,5.568292E2,5.192966E2,1.1951805E0,1.065653E2,6.2780293E1,5.551781E2,6.2067875E1,4.1297825E1,2.02148E1,5.7198346E2],"tree_param":{"num_deleted":"0","num_feature":"21","num_nodes":"31","size_leaf_vector":"1"}},{"base_weights":[9.129445E-3,2.539738E-2,-1.0840721E-1,6.9253266E-2,-8.21927E-3,-3.813274E-2,-1.7887473E-1,-3.348231E-3,8.974129E-2,5.641816E-3,-9.253225E-2,-1.2129001E-1,5.2235663E-2,1.1589063E-1,-2.160608E-1,-1.13443835E-2,1.0663257E-2,4.533538E-3,1.2185085E-2,2.730919E-3,-3.9104647E-3,2.9199824E-4,-1.8836819E-2,9.471402E-3,-1.8193414E-2,4.0546525E-2,-4.1327295E-3,2.8594498E-2,-1.1162403E-2,-3.6501524E-3,-2.5737736E-2],"categories":[],"categories_nodes":[],"categories_segments":[],"categories_sizes":[],"default_left":[0,0,0,0,0,0,0,0,0,0,0,0,0,0,0,0,0,0,0,0,0,0,0,0,0,0,0,0,0,0,0],"id":19,"left_children":[1,3,5,7,9,11,13,15,17,19,21,23,25,27,29,-1,-1,-1,-1,-1,-1,-1,-1,-1,-1,-1,-1,-1,-1,-1,-1],"loss_changes":[7.9496527E0,5.384171E0,2.4964213E0,2.357368E0,2.4173746E0,1.9178343E0,2.7886744E0,4.246687E0,1.75669E0,1.7239339E0,2.6720736E0,1.7564198E0,4.0684624E0,1.1498659E0,1.65415E0,0E0,0E0,0E0,0E0,0E0,0E0,0E0,0E0,0E0,0E0,0E0,0E0,0E0,0E0,0E0,0E0],"parents":[2147483647,0,0,1,1,2,2,3,3,4,4,5,5,6,6,7,7,8,8,9,9,10,10,11,11,12,12,13,13,14,14],"right_children":[2,4,6,8,10,12,14,16,18,20,22,24,26,28,30,-1,-1,-1,-1,-1,-1,-1,-1,-1,-1,-1,-1,-1,-1,-1,-1],"split_conditions":[3.051755E1,2.78E2,1E0,7.3171096E0,2.6231012E1,3.47E2,1E0,1E0,1.15E2,5.2E2,1E0,1E0,3.94E2,3E0,1E0,-1.13443835E-2,1.0663257E-2,4.533538E-3,1.2185085E-2,2.730919E-3,-3.9104647E-3,2.9199824E-4,-1.8836819E-2,9.471402E-3,-1.8193414E-2,4.0546525E-2,-4.1327295E-3,2.8594498E-2,-1.1162403E-2,-3.6501524E-3,-2.5737736E-2],"split_indices":[10,13,14,10,10,13,0,17,13,13,14,2,13,1,3,0,0,0,0,0,0,0,0,0,0,0,0,0,0,0,0],"split_type":[0,0,0,0,0,0,0,0,0,0,0,0,0,0,0,0,0,0,0,0,0,0,0,0,0,0,0,0,0,0,0],"sum_hessian":[4.155157E3,3.6506626E3,5.0449454E2,1.5836246E3,2.0670378E3,2.533649E2,2.5112965E2,3.4872327E2,1.2349014E3,1.7759966E3,2.9104144E2,1.3176874E2,1.2159616E2,2.7895105E1,2.2323454E2,1.7425493E2,1.7446832E2,5.19236E2,7.1566534E2,1.196844E3,5.791526E2,1.4629836E2,1.4474307E2,2.876192E1,1.0300682E2,2.4765396E1,9.6830765E1,1.5816412E1,1.2078694E1,4.2110096E1,1.8112445E2],"tree_param":{"num_deleted":"0","num_feature":"21","num_nodes":"31","size_leaf_vector":"1"}},{"base_weights":[-3.8091438E-3,-3.2085204E-1,3.7703142E-1,-1.9241908E-1,-6.22086E-1,5.8797365E-1,-4.74077E-2,-4.5527437E-1,5.8711197E-2,-6.5764315E-2,-4.4548988E-1,3.2218426E-1,7.517905E-1,-3.1508273E-1,3.326638E-1,-6.2325116E-2,-2.8282E-2,-2.3995971E-2,4.202152E-2,-6.376041E-2,3.0085426E-3,4.235271E-3,6.1085016E-2,6.357831E-2,8.59062E-2,-5.7471957E-2,-5.2072466E-3,-1.709992E-3,6.662187E-2],"categories":[],"categories_nodes":[],"categories_segments":[],"categories_sizes":[],"default_left":[0,0,0,0,0,0,0,0,0,0,0,0,0,0,0,0,0,0,0,0,0,0,0,0,0,0,0,0,0],"id":20,"left_children":[1,3,5,7,9,11,13,15,17,-1,19,21,23,25,27,-1,-1,-1,-1,-1,-1,-1,-1,-1,-1,-1,-1,-1,-1],"loss_changes":[5.569175E2,9.726016E1,1.8763297E2,1.1660906E2,4.4285583E0,6.0706726E1,7.0972015E1,2.4824097E1,9.771536E1,0E0,1.181653E1,4.323262E1,1.022171E1,2.7915882E1,3.3650944E1,0E0,0E0,0E0,0E0,0E0,0E0,0E0,0E0,0E0,0E0,0E0,0E0,0E0,0E0],"parents":[2147483647,0,0,1,1,2,2,3,3,4,4,5,5,6,6,7,7,8,8,10,10,11,11,12,12,13,13,14,14],"right_children":[2,4,6,8,10,12,14,16,18,-1,20,22,24,26,28,-1,-1,-1,-1,-1,-1,-1,-1,-1,-1,-1,-1,-1,-1],"split_conditions":[9.5E1,2E0,2E0,1E0,2.9037565E1,1.4335455E1,2.118533E1,1E0,5.7E1,-6.5764315E-2,7E1,1E0,1E0,1E0,1E0,-6.2325116E-2,-2.8282E-2,-2.3995971E-2,4.202152E-2,-6.376041E-2,3.0085426E-3,4.235271E-3,6.1085016E-2,6.357831E-2,8.59062E-2,-5.7471957E-2,-5.2072466E-3,-1.709992E-3,6.662187E-2],"split_indices":[9,19,19,19,10,10,10,14,9,0,9,19,19,14,14,0,0,0,0,0,0,0,0,0,0,0,0,0,0],"split_type":[0,0,0,0,0,0,0,0,0,0,0,0,0,0,0,0,0,0,0,0,0,0,0,0,0,0,0,0,0],"sum_hessian":[4.6104263E3,2.5160322E3,2.094394E3,1.7651068E3,7.509254E2,1.3988121E3,6.955818E2,8.620235E2,9.030834E2,6.228019E2,1.2812358E2,5.3452435E2,8.642878E2,4.0823965E2,2.8734216E2,4.353566E2,4.266669E2,4.9470193E2,4.0838144E2,9.101593E1,3.7107643E1,2.7199765E2,2.625267E2,4.1856375E2,4.4572403E2,2.0484091E2,2.0339873E2,1.4072623E2,1.4661595E2],"tree_param":{"num_deleted":"0","num_feature":"21","num_nodes":"29","size_leaf_vector":"1"}},{"base_weights":[-6.2882556E-3,4.0426525E-1,-2.9081067E-1,5.87097E-1,7.961229E-2,-6.520863E-2,-4.6328118E-1,7.529649E-1,4.100705E-1,3.1765553E-1,-1.7209326E-1,2.2381638E-1,-3.5406142E-1,-3.0791265E-1,-5.524012E-1,8.536443E-2,6.126861E-2,6.693017E-2,2.473495E-2,5.6607377E-2,1.0303415E-2,5.8200923E-3,-3.068695E-2,4.8896503E-2,-8.430213E-3,-1.7708687E-2,-5.5312302E-2,-1.1765583E-2,-4.902885E-2,-4.983486E-2,-6.1167877E-2],"categories":[],"categories_nodes":[],"categories_segments":[],"categories_sizes":[],"default_left":[0,0,0,0,0,0,0,0,0,0,0,0,0,0,0,0,0,0,0,0,0,0,0,0,0,0,0,0,0,0,0],"id":21,"left_children":[1,3,5,7,9,11,13,15,17,19,21,23,25,27,29,-1,-1,-1,-1,-1,-1,-1,-1,-1,-1,-1,-1,-1,-1,-1,-1],"loss_changes":[4.704936E2,9.7817535E1,9.253769E1,3.0657318E1,3.5714207E1,8.622965E1,1.8496674E1,7.149536E0,2.1445862E1,1.6268492E1,9.016535E0,4.223113E1,1.809774E1,1.707191E1,2.4361572E0,0E0,0E0,0E0,0E0,0E0,0E0,0E0,0E0,0E0,0E0,0E0,0E0,0E0,0E0,0E0,0E0],"parents":[2147483647,0,0,1,1,2,2,3,3,4,4,5,5,6,6,7,7,8,8,9,9,10,10,11,11,12,12,13,13,14,14],"right_children":[2,4,6,8,10,12,14,16,18,20,22,24,26,28,30,-1,-1,-1,-1,-1,-1,-1,-1,-1,-1,-1,-1,-1,-1,-1,-1],"split_conditions":[6.1E1,2.1959316E1,1.4444629E1,1E0,1E0,1.07E2,9.4E1,1.2757114E1,2.4E1,2.9E1,2.6E1,1E0,1E0,1E0,1E0,8.536443E-2,6.126861E-2,6.693017E-2,2.473495E-2,5.6607377E-2,1.0303415E-2,5.8200923E-3,-3.068695E-2,4.8896503E-2,-8.430213E-3,-1.7708687E-2,-5.5312302E-2,-1.1765583E-2,-4.902885E-2,-4.983486E-2,-6.1167877E-2],"split_indices":[9,10,10,14,14,9,9,10,9,9,9,14,14,14,14,0,0,0,0,0,0,0,0,0,0,0,0,0,0,0,0],"split_type":[0,0,0,0,0,0,0,0,0,0,0,0,0,0,0,0,0,0,0,0,0,0,0,0,0,0,0,0,0,0,0],"sum_hessian":[4.0257893E3,1.6477445E3,2.3780447E3,1.0535938E3,5.941509E2,1.0309182E3,1.3471266E3,5.4226044E2,5.1133328E2,3.0522815E2,2.8892273E2,5.15418E2,5.155001E2,4.9267328E2,8.5445325E2,3.1272766E2,2.2953275E2,1.9598926E2,3.1534402E2,1.407159E2,1.6451225E2,1.0687389E2,1.8204883E2,2.7671042E2,2.3870763E2,2.7388968E2,2.4161047E2,2.4193192E2,2.5074138E2,4.5184372E2,4.0260953E2],"tree_param":{"num_deleted":"0","num_feature":"21","num_nodes":"31","size_leaf_vector":"1"}},{"base_weights":[1.0588766E-2,4.953567E-2,-2.6151115E-1,-1.0210329E-1,8.428826E-2,-4.6207672E-1,8.98705E-2,5.7999212E-2,-4.6766993E-1,1.1063761E-1,-1.0473134E-1,-2.2911137E-1,-5.6842197E-2,2.984658E-1,-4.309278E-1,-1.8039035E-2,3.0467412E-2,-6.196781E-2,-1.2738369E-2,1.9788427E-2,6.52326E-3,1.3569318E-2,-3.5953447E-2,5.107702E-3,-5.4398805E-2,-2.5807107E-2,3.6442325E-2,-2.759432E-4,-5.295771E-2],"categories":[],"categories_nodes":[],"categories_segments":[],"categories_sizes":[],"default_left":[0,0,0,0,0,0,0,0,0,0,0,0,0,0,0,0,0,0,0,0,0,0,0,0,0,0,0,0,0],"id":22,"left_children":[1,3,5,7,9,11,13,15,17,19,21,23,-1,25,27,-1,-1,-1,-1,-1,-1,-1,-1,-1,-1,-1,-1,-1,-1],"loss_changes":[4.3949554E1,1.9125902E1,3.6638145E1,3.964073E1,1.4713377E1,8.064041E0,2.0718832E1,2.7785994E1,1.0589703E1,1.0251911E1,2.2204266E1,9.32118E0,0E0,5.0834007E0,2.3053083E0,0E0,0E0,0E0,0E0,0E0,0E0,0E0,0E0,0E0,0E0,0E0,0E0,0E0,0E0],"parents":[2147483647,0,0,1,1,2,2,3,3,4,4,5,5,6,6,7,7,8,8,9,9,10,10,11,11,13,13,14,14],"right_children":[2,4,6,8,10,12,14,16,18,20,22,24,-1,26,28,-1,-1,-1,-1,-1,-1,-1,-1,-1,-1,-1,-1,-1,-1],"split_conditions":[1.39E2,3E1,2E0,2E0,3.051755E1,1.0292692E1,2.4921143E1,1E0,2.4237036E1,1E0,8.9E1,1E0,-5.6842197E-2,6.6E1,1.28E2,-1.8039035E-2,3.0467412E-2,-6.196781E-2,-1.2738369E-2,1.9788427E-2,6.52326E-3,1.3569318E-2,-3.5953447E-2,5.107702E-3,-5.4398805E-2,-2.5807107E-2,3.6442325E-2,-2.759432E-4,-5.295771E-2],"split_indices":[9,9,19,19,10,10,10,19,10,19,9,19,0,13,13,0,0,0,0,0,0,0,0,0,0,0,0,0,0],"split_type":[0,0,0,0,0,0,0,0,0,0,0,0,0,0,0,0,0,0,0,0,0,0,0,0,0,0,0,0,0],"sum_hessian":[4.14496E3,3.6266753E3,5.182846E2,6.758302E2,2.9508452E3,3.2975073E2,1.8853387E2,4.7057837E2,2.052518E2,2.5901875E3,3.6065762E2,1.04337685E2,2.2541306E2,1.3492091E2,5.3612953E1,2.394448E2,2.3113359E2,1.4130766E2,6.394413E1,8.8543945E2,1.704748E3,1.8580505E2,1.7485255E2,5.5653244E1,4.868444E1,1.3987164E1,1.2093376E2,1.023179E1,4.3381165E1],"tree_param":{"num_deleted":"0","num_feature":"21","num_nodes":"29","size_leaf_vector":"1"}},{"base_weights":[-4.074827E-3,-3.5603106E-1,3.137641E-1,-2.4431019E-1,-6.263389E-1,5.0918174E-1,-8.766768E-2,-4.756445E-1,-2.3213482E-2,-6.5269105E-2,-5.195165E-1,3.1477308E-1,6.9482976E-1,-3.5596392E-1,1.6863756E-1,-6.225854E-2,-3.299744E-2,-3.5143636E-2,2.3552014E-2,-6.265645E-2,-3.9621197E-2,6.0997936E-3,5.692618E-2,5.4080773E-2,7.841837E-2,-4.9640458E-2,6.1368784E-3,-1.3810788E-2,4.156745E-2],"categories":[],"categories_nodes":[],"categories_segments":[],"categories_sizes":[],"default_left":[0,0,0,0,0,0,0,0,0,0,0,0,0,0,0,0,0,0,0,0,0,0,0,0,0,0,0,0,0],"id":23,"left_children":[1,3,5,7,9,11,13,15,17,-1,19,21,23,25,27,-1,-1,-1,-1,-1,-1,-1,-1,-1,-1,-1,-1,-1,-1],"loss_changes":[5.1016037E2,6.520032E1,1.8803447E2,7.83905E1,1.4406433E0,5.7958282E1,5.407347E1,1.5827591E1,6.6731804E1,0E0,1.4677353E0,5.093499E1,1.0912231E1,2.2541561E1,3.0549545E1,0E0,0E0,0E0,0E0,0E0,0E0,0E0,0E0,0E0,0E0,0E0,0E0,0E0,0E0],"parents":[2147483647,0,0,1,1,2,2,3,3,4,4,5,5,6,6,7,7,8,8,10,10,11,11,12,12,13,13,14,14],"right_children":[2,4,6,8,10,12,14,16,18,-1,20,22,24,26,28,-1,-1,-1,-1,-1,-1,-1,-1,-1,-1,-1,-1,-1,-1],"split_conditions":[8.5E1,2E0,2E0,1E0,7.1E1,1E0,1E0,1E0,4.1E1,-6.5269105E-2,1E0,1E0,1.11E2,1.41E2,1.2E2,-6.225854E-2,-3.299744E-2,-3.5143636E-2,2.3552014E-2,-6.265645E-2,-3.9621197E-2,6.0997936E-3,5.692618E-2,5.4080773E-2,7.841837E-2,-4.9640458E-2,6.1368784E-3,-1.3810788E-2,4.156745E-2],"split_indices":[9,19,19,19,9,19,14,14,9,0,14,14,9,9,9,0,0,0,0,0,0,0,0,0,0,0,0,0,0],"split_type":[0,0,0,0,0,0,0,0,0,0,0,0,0,0,0,0,0,0,0,0,0,0,0,0,0,0,0,0,0],"sum_hessian":[4.5584854E3,2.1630881E3,2.3953975E3,1.5318594E3,6.3122876E2,1.6109271E3,7.8447034E2,7.480356E2,7.838238E2,5.0222455E2,1.2900421E2,7.882136E2,8.2271344E2,3.8307974E2,4.0139062E2,3.707636E2,3.7727197E2,3.4535587E2,4.3846793E2,6.686947E1,6.2134747E1,3.9528082E2,3.9293283E2,3.0464307E2,5.180704E2,2.864831E2,9.659666E1,1.7925316E2,2.2213747E2],"tree_param":{"num_deleted":"0","num_feature":"21","num_nodes":"29","size_leaf_vector":"1"}},{"base_weights":[-7.415077E-3,2.2340937E-1,-2.4720423E-1,4.2647412E-1,-1.2697957E-2,-7.67673E-2,-4.4443056E-1,6.0072684E-1,2.4445468E-1,1.6666877E-1,-1.9572894E-1,3.153265E-1,-1.3779852E-1,-2.0161334E-1,-4.8575458E-1,8.666631E-2,5.483204E-2,7.612421E-2,1.5535473E-2,5.460758E-2,9.7752325E-3,1.8465644E-2,-2.474767E-2,3.543573E-2,-1.5910912E-2,1.1774024E-3,-2.8349845E-2,2.4293764E-3,-2.9114334E-2,-3.8124327E-2,-5.407094E-2],"categories":[],"categories_nodes":[],"categories_segments":[],"categories_sizes":[],"default_left":[0,0,0,0,0,0,0,0,0,0,0,0,0,0,0,0,0,0,0,0,0,0,0,0,0,0,0,0,0,0,0],"id":24,"left_children":[1,3,5,7,9,11,13,15,17,19,21,23,25,27,29,-1,-1,-1,-1,-1,-1,-1,-1,-1,-1,-1,-1,-1,-1,-1,-1],"loss_changes":[2.2019693E2,9.71934E1,6.555662E1,3.4419403E1,3.0835033E1,2.512024E1,8.976288E0,7.2750854E0,2.4503191E1,1.23511505E1,9.195671E0,2.6756678E0,1.977969E1,2.7017226E0,4.2283325E0,0E0,0E0,0E0,0E0,0E0,0E0,0E0,0E0,0E0,0E0,0E0,0E0,0E0,0E0,0E0,0E0],"parents":[2147483647,0,0,1,1,2,2,3,3,4,4,5,5,6,6,7,7,8,8,9,9,10,10,11,11,12,12,13,13,14,14],"right_children":[2,4,6,8,10,12,14,16,18,20,22,24,26,28,30,-1,-1,-1,-1,-1,-1,-1,-1,-1,-1,-1,-1,-1,-1,-1,-1],"split_conditions":[1E0,1.8383738E1,1.7867731E1,1E0,1E0,1.5036E4,1.4679E4,3.0411696E0,1.3955E4,1.5036E4,1.3955E4,1.6807714E1,1E0,2.2313778E1,2.3592407E1,8.666631E-2,5.483204E-2,7.612421E-2,1.5535473E-2,5.460758E-2,9.7752325E-3,1.8465644E-2,-2.474767E-2,3.543573E-2,-1.5910912E-2,1.1774024E-3,-2.8349845E-2,2.4293764E-3,-2.9114334E-2,-3.8124327E-2,-5.407094E-2],"split_indices":[17,10,10,12,12,11,11,10,11,11,11,10,12,10,10,0,0,0,0,0,0,0,0,0,0,0,0,0,0,0,0],"split_type":[0,0,0,0,0,0,0,0,0,0,0,0,0,0,0,0,0,0,0,0,0,0,0,0,0,0,0,0,0,0,0],"sum_hessian":[3.9763242E3,2.0260695E3,1.9502549E3,1.0888203E3,9.372492E2,1.0469243E3,9.0333057E2,5.55103E2,5.337172E2,4.7340808E2,4.6384113E2,1.4044856E2,9.064757E2,1.3223062E2,7.710999E2,8.8824814E1,4.662782E2,7.737749E1,4.5633975E2,7.170815E1,4.0169992E2,5.5237198E1,4.086039E2,1.3000633E2,1.0442234E1,4.4774704E2,4.587287E2,3.773761E1,9.449301E1,2.684698E2,5.0263013E2],"tree_param":{"num_deleted":"0","num_feature":"21","num_nodes":"31","size_leaf_vector":"1"}},{"base_weights":[1.2802886E-2,4.9040843E-2,-2.4596332E-1,-1.8639314E-1,6.869445E-2,-8.999376E-2,-4.783084E-1,-3.1046766E-1,9.902555E-2,1.0008117E-1,-2.129779E-2,2.4831478E-2,-2.0585392E-1,-1.1691951E-1,-5.087421E-1,-4.322301E-2,-2.1351352E-2,1.4933643E-2,-4.694133E-2,-5.3987675E-3,1.4270768E-2,2.7121548E-2,-1.6656972E-2,-4.2428907E-2,5.6706895E-3,5.1141944E-2,-2.5241408E-2,-4.315312E-2,1.022738E-2,-7.812162E-3,-5.288356E-2],"categories":[],"categories_nodes":[],"categories_segments":[],"categories_sizes":[],"default_left":[0,0,0,0,0,0,0,0,0,0,0,0,0,0,0,0,0,0,0,0,0,0,0,0,0,0,0,0,0,0,0],"id":25,"left_children":[1,3,5,7,9,11,13,15,17,19,21,23,25,27,29,-1,-1,-1,-1,-1,-1,-1,-1,-1,-1,-1,-1,-1,-1,-1,-1],"loss_changes":[3.8739037E1,1.6778942E1,1.8347458E1,9.926712E0,9.450295E0,4.0611258E0,2.1798096E0,2.209938E0,2.5132294E0,1.6296284E1,3.6836033E1,2.2289376E0,5.2007747E0,1.2242327E0,1.5809708E0,0E0,0E0,0E0,0E0,0E0,0E0,0E0,0E0,0E0,0E0,0E0,0E0,0E0,0E0,0E0,0E0],"parents":[2147483647,0,0,1,1,2,2,3,3,4,4,5,5,6,6,7,7,8,8,9,9,10,10,11,11,12,12,13,13,14,14],"right_children":[2,4,6,8,10,12,14,16,18,20,22,24,26,28,30,-1,-1,-1,-1,-1,-1,-1,-1,-1,-1,-1,-1,-1,-1,-1,-1],"split_conditions":[1.39E2,1.5E1,2.0321825E1,2.438458E1,1.07E2,9.678791E0,1.0038E4,1.0144506E1,3.3741398E1,8.187806E0,1.2062408E1,5E0,6.424E3,2E0,1.4E2,-4.322301E-2,-2.1351352E-2,1.4933643E-2,-4.694133E-2,-5.3987675E-3,1.4270768E-2,2.7121548E-2,-1.6656972E-2,-4.2428907E-2,5.6706895E-3,5.1141944E-2,-2.5241408E-2,-4.315312E-2,1.022738E-2,-7.812162E-3,-5.288356E-2],"split_indices":[9,9,10,10,9,10,11,10,10,10,10,16,11,2,9,0,0,0,0,0,0,0,0,0,0,0,0,0,0,0,0],"split_type":[0,0,0,0,0,0,0,0,0,0,0,0,0,0,0,0,0,0,0,0,0,0,0,0,0,0,0,0,0,0,0],"sum_hessian":[4.1289263E3,3.6224448E3,5.064814E2,2.7844305E2,3.3440017E3,3.0387936E2,2.0260204E2,1.9401495E2,8.44281E1,2.4792114E3,8.6479016E2,1.5301593E2,1.5086343E2,1.6112602E1,1.8648944E2,8.44713E1,1.0954365E2,7.824055E1,6.187557E0,5.372204E2,1.9419911E3,2.8667896E2,5.781112E2,9.3244705E0,1.4369147E2,8.587428E0,1.4227602E2,6.218445E0,9.894158E0,8.531869E0,1.7795757E2],"tree_param":{"num_deleted":"0","num_feature":"21","num_nodes":"31","size_leaf_vector":"1"}},{"base_weights":[-5.203843E-3,-2.2452205E-1,2.0247568E-1,-9.551781E-2,-5.142407E-1,3.5584357E-1,-1.3746503E-1,-3.0615053E-1,9.591537E-2,-6.83914E-2,-4.8816872E-1,1.4806685E-1,5.62684E-1,-4.659822E-1,-7.8238435E-2,-6.1826568E-2,-2.740641E-2,-2.8027147E-2,1.6098103E-2,-4.5982517E-2,-5.720554E-2,-1.7436234E-2,1.9862602E-2,2.4630034E-2,6.103728E-2,-6.333293E-2,-3.9312582E-2,2.0771807E-2,-8.614579E-3],"categories":[],"categories_nodes":[],"categories_segments":[],"categories_sizes":[],"default_left":[0,0,0,0,0,0,0,0,0,0,0,0,0,0,0,0,0,0,0,0,0,0,0,0,0,0,0,0,0],"id":26,"left_children":[1,3,5,7,9,11,13,15,17,-1,19,21,23,25,27,-1,-1,-1,-1,-1,-1,-1,-1,-1,-1,-1,-1,-1,-1],"loss_changes":[2.0470914E2,8.164958E1,1.2040222E2,6.10645E1,2.6443024E0,6.8294174E1,1.3941613E1,7.05056E0,1.9473549E1,0E0,1.1327667E0,1.2995834E1,1.1874161E1,1.0864849E0,1.3969233E0,0E0,0E0,0E0,0E0,0E0,0E0,0E0,0E0,0E0,0E0,0E0,0E0,0E0,0E0],"parents":[2147483647,0,0,1,1,2,2,3,3,4,4,5,5,6,6,7,7,8,8,10,10,11,11,12,12,13,13,14,14],"right_children":[2,4,6,8,10,12,14,16,18,-1,20,22,24,26,28,-1,-1,-1,-1,-1,-1,-1,-1,-1,-1,-1,-1,-1,-1],"split_conditions":[1E0,2E0,2E0,1E0,1.3955E4,1E0,1.5036E4,1.0366E4,1.5472E4,-6.83914E-2,1.9E1,1.5899E4,1.4259E4,4.939E3,1.6605E4,-6.1826568E-2,-2.740641E-2,-2.8027147E-2,1.6098103E-2,-4.5982517E-2,-5.720554E-2,-1.7436234E-2,1.9862602E-2,2.4630034E-2,6.103728E-2,-6.333293E-2,-3.9312582E-2,2.0771807E-2,-8.614579E-3],"split_indices":[17,19,19,19,11,19,11,11,11,0,18,11,11,11,11,0,0,0,0,0,0,0,0,0,0,0,0,0,0],"split_type":[0,0,0,0,0,0,0,0,0,0,0,0,0,0,0,0,0,0,0,0,0,0,0,0,0,0,0,0,0],"sum_hessian":[4.4923716E3,2.184922E3,2.3074497E3,1.5126898E3,6.7223224E2,1.5900396E3,7.1741016E2,7.1994244E2,7.9274744E2,8.617607E1,5.860562E2,7.940803E2,7.959592E2,1.08533035E2,6.0887714E2,6.5409935E1,6.545325E2,1.1640823E2,6.763392E2,4.4289337E2,1.4316283E2,1.0730693E2,6.867734E2,1.0506795E2,6.9089124E2,3.058595E1,7.794708E1,1.5703854E1,5.931733E2],"tree_param":{"num_deleted":"0","num_feature":"21","num_nodes":"29","size_leaf_vector":"1"}},{"base_weights":[-7.228764E-3,2.9667863E-1,-3.5166556E-1,5.6984144E-1,1.9462068E-2,-1.882818E-1,-5.354087E-1,4.0816033E-1,8.9344066E-1,-2.0127168E-1,4.4453147E-1,4.095576E-2,-4.481714E-1,-6.0389966E-2,-4.246911E-1,6.942321E-2,9.0572825E-3,9.447493E-2,7.0694976E-2,3.7354303E-3,-5.0474674E-2,7.920085E-2,8.040967E-3,-2.2000032E-2,4.7404796E-2,-8.103905E-3,-5.279396E-2,-1.4613359E-2,-5.6610793E-2],"categories":[],"categories_nodes":[],"categories_segments":[],"categories_sizes":[],"default_left":[0,0,0,0,0,0,0,0,0,0,0,0,0,0,0,0,0,0,0,0,0,0,0,0,0,0,0,0,0],"id":27,"left_children":[1,3,5,7,9,11,13,15,17,19,21,23,25,-1,27,-1,-1,-1,-1,-1,-1,-1,-1,-1,-1,-1,-1,-1,-1],"loss_changes":[4.1460468E2,1.5933105E2,5.563533E1,5.5085052E1,9.8175766E1,5.8658558E1,6.3659515E0,6.4311905E1,2.7027588E0,4.989747E1,4.5184334E1,5.93144E1,1.3469101E1,0E0,1.3197979E1,0E0,0E0,0E0,0E0,0E0,0E0,0E0,0E0,0E0,0E0,0E0,0E0,0E0,0E0],"parents":[2147483647,0,0,1,1,2,2,3,3,4,4,5,5,6,6,7,7,8,8,9,9,10,10,11,11,12,12,14,14],"right_children":[2,4,6,8,10,12,14,16,18,20,22,24,26,-1,28,-1,-1,-1,-1,-1,-1,-1,-1,-1,-1,-1,-1,-1,-1],"split_conditions":[7.8E1,1E0,1E0,2E0,2E0,1.2E2,2E0,1E0,6.1E1,1E0,1.709666E1,2E0,5.672233E0,-6.0389966E-2,1.1420963E1,6.942321E-2,9.0572825E-3,9.447493E-2,7.0694976E-2,3.7354303E-3,-5.0474674E-2,7.920085E-2,8.040967E-3,-2.2000032E-2,4.7404796E-2,-8.103905E-3,-5.279396E-2,-1.4613359E-2,-5.6610793E-2],"split_indices":[9,17,17,19,19,9,19,19,9,19,10,19,10,0,10,0,0,0,0,0,0,0,0,0,0,0,0,0,0],"split_type":[0,0,0,0,0,0,0,0,0,0,0,0,0,0,0,0,0,0,0,0,0,0,0,0,0,0,0,0,0],"sum_hessian":[3.9588076E3,2.1032144E3,1.8555934E3,1.058821E3,1.0443933E3,9.832847E2,8.7230865E2,7.0756104E2,3.5125998E2,6.8776904E2,3.566242E2,5.228996E2,4.6038507E2,5.361725E2,3.3613617E2,3.7162668E2,3.3593433E2,2.7228204E2,7.897793E1,3.8551276E2,3.022563E2,1.8188167E2,1.7474255E2,3.2660095E2,1.9629865E2,8.25349E1,3.778502E2,1.138709E2,2.2226527E2],"tree_param":{"num_deleted":"0","num_feature":"21","num_nodes":"29","size_leaf_vector":"1"}},{"base_weights":[1.2943252E-2,4.745375E-2,-2.3695727E-1,-7.511544E-2,8.2885966E-2,-4.3301463E-1,8.696039E-2,8.5019894E-2,-4.4686404E-1,1.1644854E-1,-1.0888227E-1,-2.0325522E-1,-5.4187614E-1,4.4676903E-1,-3.375481E-1,-1.6345711E-2,3.3029906E-2,-5.971813E-2,-1.08102895E-2,2.0043008E-2,7.2435043E-3,1.0396245E-2,-3.2492977E-2,5.548982E-3,-5.1303364E-2,-4.5396853E-2,-6.2537424E-2,6.754037E-2,-1.9068228E-2,-1.2076809E-2,-6.5139554E-2],"categories":[],"categories_nodes":[],"categories_segments":[],"categories_sizes":[],"default_left":[0,0,0,0,0,0,0,0,0,0,0,0,0,0,0,0,0,0,0,0,0,0,0,0,0,0,0,0,0,0,0],"id":28,"left_children":[1,3,5,7,9,11,13,15,17,19,21,23,25,27,29,-1,-1,-1,-1,-1,-1,-1,-1,-1,-1,-1,-1,-1,-1,-1,-1],"loss_changes":[3.557983E1,1.5747811E1,3.182949E1,4.845778E1,1.8113342E1,7.694092E0,2.9108786E1,3.4752193E1,1.2413368E1,8.834114E0,1.9319897E1,8.196926E0,1.2656746E0,1.5146774E1,5.877447E0,0E0,0E0,0E0,0E0,0E0,0E0,0E0,0E0,0E0,0E0,0E0,0E0,0E0,0E0,0E0,0E0],"parents":[2147483647,0,0,1,1,2,2,3,3,4,4,5,5,6,6,7,7,8,8,9,9,10,10,11,11,12,12,13,13,14,14],"right_children":[2,4,6,8,10,12,14,16,18,20,22,24,26,28,30,-1,-1,-1,-1,-1,-1,-1,-1,-1,-1,-1,-1,-1,-1,-1,-1],"split_conditions":[1.39E2,3.5E1,2E0,2E0,2.9624933E1,1.0292692E1,1E0,1E0,2.4237036E1,1E0,8.8E1,1E0,1E0,2.4921143E1,2.118533E1,-1.6345711E-2,3.3029906E-2,-5.971813E-2,-1.08102895E-2,2.0043008E-2,7.2435043E-3,1.0396245E-2,-3.2492977E-2,5.548982E-3,-5.1303364E-2,-4.5396853E-2,-6.2537424E-2,6.754037E-2,-1.9068228E-2,-1.2076809E-2,-6.5139554E-2],"split_indices":[9,9,19,19,10,10,17,17,10,19,9,19,17,10,10,0,0,0,0,0,0,0,0,0,0,0,0,0,0,0,0],"split_type":[0,0,0,0,0,0,0,0,0,0,0,0,0,0,0,0,0,0,0,0,0,0,0,0,0,0,0,0,0,0,0],"sum_hessian":[4.123281E3,3.6236729E3,4.99608E2,8.1236664E2,2.8113062E3,3.1102023E2,1.8858777E2,5.683249E2,2.4404173E2,2.392902E3,4.1840417E2,1.0091002E2,2.1011023E2,1.0204398E2,8.654378E1,2.8248776E2,2.8583713E2,1.6850763E2,7.55341E1,8.2162213E2,1.5712799E3,2.1102563E2,2.0737854E2,5.543137E1,4.547865E1,1.0548818E2,1.0462205E2,7.506197E1,2.6982008E1,5.2006653E1,3.4537125E1],"tree_param":{"num_deleted":"0","num_feature":"21","num_nodes":"31","size_leaf_vector":"1"}},{"base_weights":[-5.543385E-3,-2.9629034E-1,3.363976E-1,-5.0076187E-1,-1.1401127E-1,1.11807376E-1,5.588039E-1,-5.647334E-1,-2.2690026E-1,-3.132116E-1,1.7444952E-1,-1.11694746E-1,4.811444E-1,2.5940347E-1,6.549113E-1,-6.560928E-2,-4.71792E-2,-5.9260305E-2,-7.280338E-3,-5.0246604E-2,-9.0026995E-3,-9.170344E-3,4.2962126E-2,-3.6234513E-2,1.5073995E-2,3.1228006E-2,6.6006064E-2,2.02828E-3,6.0936507E-2,3.67248E-2,7.080092E-2],"categories":[],"categories_nodes":[],"categories_segments":[],"categories_sizes":[],"default_left":[0,0,0,0,0,0,0,0,0,0,0,0,0,0,0,0,0,0,0,0,0,0,0,0,0,0,0,0,0,0,0],"id":29,"left_children":[1,3,5,7,9,11,13,15,17,19,21,23,25,27,29,-1,-1,-1,-1,-1,-1,-1,-1,-1,-1,-1,-1,-1,-1,-1,-1],"loss_changes":[4.441077E2,8.992404E1,1.0247606E2,1.9801208E1,7.347233E1,8.447034E1,2.9501648E1,7.5148315E0,1.2190026E1,3.1892807E1,3.5528397E1,4.201621E1,1.14477005E1,2.1094818E1,1.1653107E1,0E0,0E0,0E0,0E0,0E0,0E0,0E0,0E0,0E0,0E0,0E0,0E0,0E0,0E0,0E0,0E0],"parents":[2147483647,0,0,1,1,2,2,3,3,4,4,5,5,6,6,7,7,8,8,9,9,10,10,11,11,12,12,13,13,14,14],"right_children":[2,4,6,8,10,12,14,16,18,20,22,24,26,28,30,-1,-1,-1,-1,-1,-1,-1,-1,-1,-1,-1,-1,-1,-1,-1,-1],"split_conditions":[9.5E1,1E0,1E0,2.866133E1,6.2E1,2.243231E1,9.449011E0,5.3E1,3.3E1,1.9605291E1,1E0,1E0,1E0,1.37E2,1.5036E4,-6.560928E-2,-4.71792E-2,-5.9260305E-2,-7.280338E-3,-5.0246604E-2,-9.0026995E-3,-9.170344E-3,4.2962126E-2,-3.6234513E-2,1.5073995E-2,3.1228006E-2,6.6006064E-2,2.02828E-3,6.0936507E-2,3.67248E-2,7.080092E-2],"split_indices":[9,17,17,10,9,10,10,9,9,10,14,14,14,9,11,0,0,0,0,0,0,0,0,0,0,0,0,0,0,0,0],"split_type":[0,0,0,0,0,0,0,0,0,0,0,0,0,0,0,0,0,0,0,0,0,0,0,0,0,0,0,0,0,0,0],"sum_hessian":[4.4650596E3,2.4132473E3,2.0518123E3,1.136562E3,1.2766854E3,1.0216415E3,1.0301708E3,9.204834E2,2.1607855E2,7.551329E2,5.215525E2,6.369142E2,3.847273E2,2.5122769E2,7.7894305E2,4.6113687E2,4.5934653E2,6.3213825E1,1.5286473E2,4.079506E2,3.4718228E2,2.555968E2,2.659557E2,3.2557654E2,3.1133765E2,1.993359E2,1.8539137E2,1.4987769E2,1.0135001E2,1.22609726E2,6.563333E2],"tree_param":{"num_deleted":"0","num_feature":"21","num_nodes":"31","size_leaf_vector":"1"}},{"base_weights":[-8.22727E-3,1.8889338E-1,-2.228285E-1,3.834425E-2,4.585919E-1,-3.6400607E-1,2.3254978E-2,2.55735E-1,-2.0296893E-1,6.270549E-1,2.8164056E-1,-2.2081883E-1,-5.3813004E-1,1.936999E-1,-1.5978853E-1,4.7635E-2,1.2770175E-3,2.4948353E-2,-2.8443372E-2,7.9284005E-2,4.5500305E-2,4.35342E-2,1.1166312E-2,-4.5384853E-3,-4.2461935E-2,-2.6730383E-2,-5.5546124E-2,3.4788944E-2,2.983735E-3,2.5093123E-2,-2.443432E-2],"categories":[],"categories_nodes":[],"categories_segments":[],"categories_sizes":[],"default_left":[0,0,0,0,0,0,0,0,0,0,0,0,0,0,0,0,0,0,0,0,0,0,0,0,0,0,0,0,0,0,0],"id":30,"left_children":[1,3,5,7,9,11,13,15,17,19,21,23,25,27,29,-1,-1,-1,-1,-1,-1,-1,-1,-1,-1,-1,-1,-1,-1,-1,-1],"loss_changes":[1.6510101E2,8.258152E1,6.492536E1,6.859707E1,2.1545181E1,2.9486694E1,2.1312765E1,3.6862892E1,2.2916267E1,1.0263702E1,9.283571E0,2.333848E1,2.363327E0,8.925544E0,1.1502874E1,0E0,0E0,0E0,0E0,0E0,0E0,0E0,0E0,0E0,0E0,0E0,0E0,0E0,0E0,0E0,0E0],"parents":[2147483647,0,0,1,1,2,2,3,3,4,4,5,5,6,6,7,7,8,8,9,9,10,10,11,11,12,12,13,13,14,14],"right_children":[2,4,6,8,10,12,14,16,18,20,22,24,26,28,30,-1,-1,-1,-1,-1,-1,-1,-1,-1,-1,-1,-1,-1,-1,-1,-1],"split_conditions":[1E0,2E0,2E0,1E0,1E0,1E0,1E0,1E0,1.5036E4,1E0,1E0,1E0,6.424E3,1E0,1.5472E4,4.7635E-2,1.2770175E-3,2.4948353E-2,-2.8443372E-2,7.9284005E-2,4.5500305E-2,4.35342E-2,1.1166312E-2,-4.5384853E-3,-4.2461935E-2,-2.6730383E-2,-5.5546124E-2,3.4788944E-2,2.983735E-3,2.5093123E-2,-2.443432E-2],"split_indices":[17,19,19,19,12,19,14,14,11,14,14,14,11,12,11,0,0,0,0,0,0,0,0,0,0,0,0,0,0,0,0],"split_type":[0,0,0,0,0,0,0,0,0,0,0,0,0,0,0,0,0,0,0,0,0,0,0,0,0,0,0,0,0,0,0],"sum_hessian":[3.900887E3,2.0333164E3,1.8675706E3,1.3056361E3,7.2768036E2,1.1864357E3,6.811349E2,6.8683246E2,6.188036E2,3.7147827E2,3.562021E2,6.5229913E2,5.341366E2,3.5267535E2,3.284595E2,3.5946942E2,3.2736304E2,9.4102005E1,5.247016E2,1.87347E2,1.8413127E2,1.8623691E2,1.6996518E2,3.5120245E2,3.0109668E2,3.3113304E1,5.0102325E2,1.8112209E2,1.7155327E2,5.573962E1,2.7271988E2],"tree_param":{"num_deleted":"0","num_feature":"21","num_nodes":"31","size_leaf_vector":"1"}},{"base_weights":[1.5292475E-2,4.7609273E-2,-2.237193E-1,-8.7398596E-2,7.7930465E-2,-1.0026935E-1,-3.492276E-1,-2.029406E-1,1.9797806E-2,1.1673E-1,-1.679443E-2,-2.053292E-2,-2.3261793E-1,2.5468546E-1,-3.7964106E-1,-1.6181564E-2,-4.325796E-2,-4.528539E-2,6.665354E-3,2.1126574E-2,9.254205E-3,1.2963529E-2,-4.5985742E-3,1.7022844E-2,-5.8199074E-3,-3.4653258E-2,-1.5705352E-3,-2.6753044E-2,7.0862435E-2,-4.5567323E-2,-2.4816805E-2],"categories":[],"categories_nodes":[],"categories_segments":[],"categories_sizes":[],"default_left":[0,0,0,0,0,0,0,0,0,0,0,0,0,0,0,0,0,0,0,0,0,0,0,0,0,0,0,0,0,0,0],"id":31,"left_children":[1,3,5,7,9,11,13,15,17,19,21,23,25,27,29,-1,-1,-1,-1,-1,-1,-1,-1,-1,-1,-1,-1,-1,-1,-1,-1],"loss_changes":[3.1726025E1,1.4816649E1,7.545067E0,8.227781E0,1.08617935E1,2.6127791E0,4.5449867E0,2.948615E0,7.6781616E0,4.774002E0,3.6798255E0,1.129957E0,2.2964225E0,3.0841238E0,2.195816E0,0E0,0E0,0E0,0E0,0E0,0E0,0E0,0E0,0E0,0E0,0E0,0E0,0E0,0E0,0E0,0E0],"parents":[2147483647,0,0,1,1,2,2,3,3,4,4,5,5,6,6,7,7,8,8,9,9,10,10,11,11,12,12,13,13,14,14],"right_children":[2,4,6,8,10,12,14,16,18,20,22,24,26,28,30,-1,-1,-1,-1,-1,-1,-1,-1,-1,-1,-1,-1,-1,-1,-1,-1],"split_conditions":[1.39E2,3E1,1E0,1E0,1.07E2,1.52E2,4.939E3,2.1E1,1.0734E4,1E0,1.6295E4,1.706E4,3.94E2,2E0,5E0,-1.6181564E-2,-4.325796E-2,-4.528539E-2,6.665354E-3,2.1126574E-2,9.254205E-3,1.2963529E-2,-4.5985742E-3,1.7022844E-2,-5.8199074E-3,-3.4653258E-2,-1.5705352E-3,-2.6753044E-2,7.0862435E-2,-4.5567323E-2,-2.4816805E-2],"split_indices":[9,9,12,12,9,9,11,18,11,2,11,11,13,2,0,0,0,0,0,0,0,0,0,0,0,0,0,0,0,0,0],"split_type":[0,0,0,0,0,0,0,0,0,0,0,0,0,0,0,0,0,0,0,0,0,0,0,0,0,0,0,0,0,0,0],"sum_hessian":[4.105031E3,3.6168035E3,4.8822742E2,6.629731E2,2.9538303E3,2.470389E2,2.4118854E2,3.186365E2,3.4433658E2,2.0953416E3,8.5848883E2,1.5488188E2,9.2157E1,1.1210484E1,2.2997806E2,2.7168616E2,4.695035E1,3.0275112E1,3.1406146E2,4.253148E2,1.6700266E3,1.4212407E2,7.1636475E2,2.4958654E1,1.2992323E2,6.003252E1,3.212448E1,5.4041457E0,5.8063383E0,1.4414922E2,8.5828835E1],"tree_param":{"num_deleted":"0","num_feature":"21","num_nodes":"31","size_leaf_vector":"1"}},{"base_weights":[-6.97956E-3,-2.0128286E-1,1.730407E-1,-3.4436598E-1,-6.132056E-2,-1.1523499E-2,3.5565308E-1,-4.7948446E-2,-2.1292979E-1,-1.8367815E-1,6.339491E-2,-1.2162579E-1,9.667371E-2,2.1944375E-1,4.816757E-1,-3.3435278E-2,-1.8155565E-2,9.089517E-3,-2.0159202E-2,-7.359086E-3,8.712298E-3,-8.157679E-3,-2.1320991E-2,7.089864E-3,2.2971911E-2,1.9605013E-2,5.260222E-2,5.2405633E-2,3.9633382E-2],"categories":[],"categories_nodes":[],"categories_segments":[],"categories_sizes":[],"default_left":[0,0,0,0,0,0,0,0,0,0,0,0,0,0,0,0,0,0,0,0,0,0,0,0,0,0,0,0,0],"id":32,"left_children":[1,3,5,7,9,11,13,-1,15,17,19,21,23,25,27,-1,-1,-1,-1,-1,-1,-1,-1,-1,-1,-1,-1,-1,-1],"loss_changes":[1.5383728E2,4.233638E1,7.694809E1,1.8468483E1,1.6346235E1,1.3549151E1,1.9592957E1,0E0,1.9654293E0,2.677248E0,1.7318878E0,2.0500755E0,1.9510922E0,3.865385E0,1.9451904E0,0E0,0E0,0E0,0E0,0E0,0E0,0E0,0E0,0E0,0E0,0E0,0E0,0E0,0E0],"parents":[2147483647,0,0,1,1,2,2,3,3,4,4,5,5,6,6,8,8,9,9,10,10,11,11,12,12,13,13,14,14],"right_children":[2,4,6,8,10,12,14,-1,16,18,20,22,24,26,28,-1,-1,-1,-1,-1,-1,-1,-1,-1,-1,-1,-1,-1,-1],"split_conditions":[1E0,1E0,1E0,1E0,1E0,1E0,1E0,-4.7948446E-2,1E0,3.8E1,2E0,4.51E2,5.1E1,5.96E2,2E0,-3.3435278E-2,-1.8155565E-2,9.089517E-3,-2.0159202E-2,-7.359086E-3,8.712298E-3,-8.157679E-3,-2.1320991E-2,7.089864E-3,2.2971911E-2,1.9605013E-2,5.260222E-2,5.2405633E-2,3.9633382E-2],"split_indices":[17,14,14,12,12,12,12,0,2,13,8,13,16,13,20,0,0,0,0,0,0,0,0,0,0,0,0,0,0],"split_type":[0,0,0,0,0,0,0,0,0,0,0,0,0,0,0,0,0,0,0,0,0,0,0,0,0,0,0,0,0],"sum_hessian":[4.396053E3,2.1140996E3,2.2819534E3,1.0446729E3,1.0694269E3,1.1353774E3,1.1465758E3,5.1381494E2,5.308579E2,5.395777E2,5.298492E2,5.6267303E2,5.7270447E2,5.5233527E2,5.9424054E2,1.07019264E2,4.2383868E2,3.2797813E1,5.0677988E2,7.791759E1,4.5193158E2,3.9279688E2,1.6987619E2,4.81044E2,9.166044E1,5.1470026E2,3.7634983E1,3.9362598E2,2.0061456E2],"tree_param":{"num_deleted":"0","num_feature":"21","num_nodes":"29","size_leaf_vector":"1"}},{"base_weights":[-7.958862E-3,3.5361242E-1,-2.710559E-1,1.948466E-1,6.696251E-1,-9.163523E-3,-4.1138348E-1,4.1714224E-1,-1.3541874E-1,7.728892E-1,4.892965E-1,2.1784212E-1,-3.973184E-1,-2.687766E-1,-5.2853525E-1,6.943815E-2,1.0786477E-2,9.4063105E-3,-4.304267E-2,8.029074E-2,4.9939755E-2,7.118472E-2,2.5751669E-2,-8.025775E-3,6.827801E-2,-2.2491084E-2,-5.860254E-2,-4.34669E-2,1.7985055E-3,-3.5378393E-2,-5.5242576E-2],"categories":[],"categories_nodes":[],"categories_segments":[],"categories_sizes":[],"default_left":[0,0,0,0,0,0,0,0,0,0,0,0,0,0,0,0,0,0,0,0,0,0,0,0,0,0,0,0,0,0,0],"id":33,"left_children":[1,3,5,7,9,11,13,15,17,19,21,23,25,27,29,-1,-1,-1,-1,-1,-1,-1,-1,-1,-1,-1,-1,-1,-1,-1,-1],"loss_changes":[3.6894208E2,8.1825165E1,8.249654E1,7.998242E1,9.785965E0,6.918644E1,2.42771E1,5.5739113E1,2.9741722E1,2.4342804E0,1.0209438E1,6.8726135E1,9.294891E0,3.1464039E1,3.1503754E0,0E0,0E0,0E0,0E0,0E0,0E0,0E0,0E0,0E0,0E0,0E0,0E0,0E0,0E0,0E0,0E0],"parents":[2147483647,0,0,1,1,2,2,3,3,4,4,5,5,6,6,7,7,8,8,9,9,10,10,11,11,12,12,13,13,14,14],"right_children":[2,4,6,8,10,12,14,16,18,20,22,24,26,28,30,-1,-1,-1,-1,-1,-1,-1,-1,-1,-1,-1,-1,-1,-1,-1,-1],"split_conditions":[6.1E1,2E0,1.1420963E1,2.0321825E1,2.1959316E1,1.2E2,1.01E2,1E0,1E0,5.5E1,1E0,2E0,1E0,2E0,1.1553E4,6.943815E-2,1.0786477E-2,9.4063105E-3,-4.304267E-2,8.029074E-2,4.9939755E-2,7.118472E-2,2.5751669E-2,-8.025775E-3,6.827801E-2,-2.2491084E-2,-5.860254E-2,-4.34669E-2,1.7985055E-3,-3.5378393E-2,-5.5242576E-2],"split_indices":[9,19,10,10,10,9,9,19,19,9,14,19,14,19,11,0,0,0,0,0,0,0,0,0,0,0,0,0,0,0,0],"split_type":[0,0,0,0,0,0,0,0,0,0,0,0,0,0,0,0,0,0,0,0,0,0,0,0,0,0,0,0,0,0,0],"sum_hessian":[3.8763542E3,1.6324932E3,2.243861E3,1.0876638E3,5.448294E2,7.8321594E2,1.460645E3,6.499387E2,4.3772507E2,3.4435217E2,2.004772E2,4.944716E2,2.8874435E2,6.6024E2,8.004051E2,3.4206406E2,3.0787463E2,2.4658882E2,1.9113626E2,3.0855023E2,3.5801952E1,1.0121817E2,9.925904E1,3.01798E2,1.926736E2,1.5203404E2,1.3671031E2,4.1794302E2,2.4229697E2,9.816541E1,7.022396E2],"tree_param":{"num_deleted":"0","num_feature":"21","num_nodes":"31","size_leaf_vector":"1"}},{"base_weights":[1.5464327E-2,4.6113495E-2,-2.1418066E-1,-1.7081235E-1,6.381586E-2,-4.1256887E-1,1.0520135E-1,-4.3144792E-1,7.963819E-2,8.408438E-2,-4.5644674E-2,-2.6987565E-1,-5.749203E-2,4.309157E-1,-3.0218157E-1,-5.9009947E-2,-2.7507126E-2,2.3259332E-2,-3.1050831E-2,1.5335961E-2,4.7437255E-3,-2.625604E-2,3.525456E-2,-7.4407826E-3,-4.679855E-2,5.051597E-2,1.5870128E-2,-1.7209003E-3,-5.531472E-2],"categories":[],"categories_nodes":[],"categories_segments":[],"categories_sizes":[],"default_left":[0,0,0,0,0,0,0,0,0,0,0,0,0,0,0,0,0,0,0,0,0,0,0,0,0,0,0,0,0],"id":34,"left_children":[1,3,5,7,9,11,13,15,17,19,21,23,-1,25,27,-1,-1,-1,-1,-1,-1,-1,-1,-1,-1,-1,-1,-1,-1],"loss_changes":[2.887917E1,1.391025E1,3.0656012E1,1.7878305E1,7.4298687E0,6.753647E0,2.4799574E1,3.1649208E0,8.441512E0,7.163559E0,4.531788E1,6.184513E0,0E0,2.0161648E0,5.9401155E0,0E0,0E0,0E0,0E0,0E0,0E0,0E0,0E0,0E0,0E0,0E0,0E0,0E0,0E0],"parents":[2147483647,0,0,1,1,2,2,3,3,4,4,5,5,6,6,7,7,8,8,9,9,10,10,11,11,13,13,14,14],"right_children":[2,4,6,8,10,12,14,16,18,20,22,24,-1,26,28,-1,-1,-1,-1,-1,-1,-1,-1,-1,-1,-1,-1,-1,-1],"split_conditions":[1.39E2,1.5E1,2E0,1E0,1.19E2,1E0,1E0,1E0,2E0,1E0,2E0,1E0,-5.749203E-2,7.6646E4,1E0,-5.9009947E-2,-2.7507126E-2,2.3259332E-2,-3.1050831E-2,1.5335961E-2,4.7437255E-3,-2.625604E-2,3.525456E-2,-7.4407826E-3,-4.679855E-2,5.051597E-2,1.5870128E-2,-1.7209003E-3,-5.531472E-2],"split_indices":[9,9,19,17,9,19,17,14,19,19,19,17,0,11,14,0,0,0,0,0,0,0,0,0,0,0,0,0,0],"split_type":[0,0,0,0,0,0,0,0,0,0,0,0,0,0,0,0,0,0,0,0,0,0,0,0,0,0,0,0,0],"sum_hessian":[4.100668E3,3.6185266E3,4.8214114E2,2.7236017E2,3.3461665E3,2.9722455E2,1.8491658E2,1.3311212E2,1.3924805E2,2.8235662E3,5.2260034E2,1.5960632E2,1.3761823E2,1.02726234E2,8.2190346E1,6.469866E1,6.841346E1,1.0032135E2,3.8926693E1,9.7579834E2,1.8477677E3,3.38527E2,1.8407332E2,8.103127E1,7.857505E1,8.004027E1,2.268597E1,3.898794E1,4.3202408E1],"tree_param":{"num_deleted":"0","num_feature":"21","num_nodes":"29","size_leaf_vector":"1"}},{"base_weights":[-7.4457396E-3,1.2486375E-1,-3.081274E-1,-1.2038963E-1,2.766379E-1,-4.1975403E-1,-2.6124319E-2,-3.254145E-1,6.421168E-2,8.052695E-2,4.6319383E-1,-5.892199E-1,-2.7539343E-1,-2.0937721E-1,1.5173317E-1,-4.8244752E-2,-1.6523123E-2,-1.6447201E-2,2.8973639E-2,-1.4517741E-2,2.8098477E-2,2.959503E-2,6.334396E-2,-6.5195695E-2,-5.3430296E-2,-4.5433626E-2,-2.1836342E-2,-2.6269993E-2,1.2788809E-2,4.0929196E-3,2.6018456E-2],"categories":[],"categories_nodes":[],"categories_segments":[],"categories_sizes":[],"default_left":[0,0,0,0,0,0,0,0,0,0,0,0,0,0,0,0,0,0,0,0,0,0,0,0,0,0,0,0,0,0,0],"id":35,"left_children":[1,3,5,7,9,11,13,15,17,19,21,23,25,27,29,-1,-1,-1,-1,-1,-1,-1,-1,-1,-1,-1,-1,-1,-1,-1,-1],"loss_changes":[1.7406306E2,1.1313135E2,4.2075264E1,4.4007587E1,6.864073E1,2.3268417E1,1.2423762E1,1.377523E1,3.1631165E1,4.1501045E1,2.7197876E1,1.1665497E0,5.1978874E0,3.4088573E0,2.3148842E0,0E0,0E0,0E0,0E0,0E0,0E0,0E0,0E0,0E0,0E0,0E0,0E0,0E0,0E0,0E0,0E0],"parents":[2147483647,0,0,1,1,2,2,3,3,4,4,5,5,6,6,7,7,8,8,9,9,10,10,11,11,12,12,13,13,14,14],"right_children":[2,4,6,8,10,12,14,16,18,20,22,24,26,28,30,-1,-1,-1,-1,-1,-1,-1,-1,-1,-1,-1,-1,-1,-1,-1,-1],"split_conditions":[2E0,1.4081496E1,2.5577253E1,1E0,1E0,1E0,1E0,1E0,1E0,1E0,1E0,1.1796722E1,6.614617E0,3.3546467E1,1E0,-4.8244752E-2,-1.6523123E-2,-1.6447201E-2,2.8973639E-2,-1.4517741E-2,2.8098477E-2,2.959503E-2,6.334396E-2,-6.5195695E-2,-5.3430296E-2,-4.5433626E-2,-2.1836342E-2,-2.6269993E-2,1.2788809E-2,4.0929196E-3,2.6018456E-2],"split_indices":[19,10,10,17,19,17,17,12,19,17,17,10,10,10,12,0,0,0,0,0,0,0,0,0,0,0,0,0,0,0,0],"split_type":[0,0,0,0,0,0,0,0,0,0,0,0,0,0,0,0,0,0,0,0,0,0,0,0,0,0,0,0,0,0,0],"sum_hessian":[4.3733413E3,3.0373816E3,1.3359598E3,1.1611975E3,1.8761841E3,9.567546E2,3.7920523E2,5.498033E2,6.113942E2,9.153662E2,9.608178E2,4.3869083E2,5.180637E2,1.8668245E2,1.9252278E2,2.766158E2,2.731875E2,3.037054E2,3.0768878E2,4.306989E2,4.846673E2,4.860638E2,4.7475403E2,1.996917E2,2.3899915E2,1.2352215E2,3.945416E2,1.6138765E2,2.5294806E1,9.590981E1,9.661296E1],"tree_param":{"num_deleted":"0","num_feature":"21","num_nodes":"31","size_leaf_vector":"1"}},{"base_weights":[-8.05491E-3,2.6754996E-1,-3.330962E-1,5.0209224E-1,2.4333274E-2,-1.867818E-1,-5.114371E-1,6.514104E-1,2.6832062E-1,2.7868944E-1,-1.1401796E-1,2.812396E-2,-4.3687472E-1,-4.041552E-1,-5.7412416E-2,8.836062E-2,6.1064925E-2,6.897657E-2,2.0140108E-2,6.5531105E-2,2.2568526E-2,3.911011E-2,-1.9711414E-2,5.3334154E-2,-5.880745E-3,-9.391762E-3,-4.994397E-2,-4.6139937E-3,-4.711449E-2],"categories":[],"categories_nodes":[],"categories_segments":[],"categories_sizes":[],"default_left":[0,0,0,0,0,0,0,0,0,0,0,0,0,0,0,0,0,0,0,0,0,0,0,0,0,0,0,0,0],"id":36,"left_children":[1,3,5,7,9,11,13,15,17,19,21,23,25,27,-1,-1,-1,-1,-1,-1,-1,-1,-1,-1,-1,-1,-1,-1,-1],"loss_changes":[3.4261496E2,1.1805208E2,4.5695953E1,3.6601868E1,3.5824165E1,5.190822E1,5.0828857E0,5.538788E0,1.1490778E1,7.011013E0,2.7758036E1,2.288071E1,9.529655E0,7.0498466E0,0E0,0E0,0E0,0E0,0E0,0E0,0E0,0E0,0E0,0E0,0E0,0E0,0E0,0E0,0E0],"parents":[2147483647,0,0,1,1,2,2,3,3,4,4,5,5,6,6,7,7,8,8,9,9,10,10,11,11,12,12,13,13],"right_children":[2,4,6,8,10,12,14,16,18,20,22,24,26,28,-1,-1,-1,-1,-1,-1,-1,-1,-1,-1,-1,-1,-1,-1,-1],"split_conditions":[7.8E1,1E0,1E0,4.8E1,2.9E1,1.2E2,1.04E2,1.5036E4,1.3955E4,1.4679E4,1.5036E4,1.5036E4,1.5472E4,1.4679E4,-5.7412416E-2,8.836062E-2,6.1064925E-2,6.897657E-2,2.0140108E-2,6.5531105E-2,2.2568526E-2,3.911011E-2,-1.9711414E-2,5.3334154E-2,-5.880745E-3,-9.391762E-3,-4.994397E-2,-4.6139937E-3,-4.711449E-2],"split_indices":[9,17,17,9,9,9,9,11,11,11,11,11,11,11,0,0,0,0,0,0,0,0,0,0,0,0,0,0,0],"split_type":[0,0,0,0,0,0,0,0,0,0,0,0,0,0,0,0,0,0,0,0,0,0,0,0,0,0,0,0,0],"sum_hessian":[3.82256E3,2.0686843E3,1.7538756E3,1.0525803E3,1.01610406E3,9.6457025E2,7.8930536E2,6.412225E2,4.1135788E2,3.576172E2,6.584869E2,5.1925775E2,4.4531247E2,2.9385403E2,4.9545132E2,9.266707E1,5.485554E2,5.5092106E1,3.5626578E2,4.271834E1,3.1489883E2,9.249971E1,5.659872E2,7.547661E1,4.4378116E2,6.90898E1,3.762227E2,4.6583755E1,2.4727026E2],"tree_param":{"num_deleted":"0","num_feature":"21","num_nodes":"29","size_leaf_vector":"1"}},{"base_weights":[1.7050985E-2,-2.1841394E-2,2.6505237E-2,2.8809773E-2,-1.033175E-1,6.361426E-4,6.664279E-2,1.0959174E-2,3.959656E-1,2.2366998E-1,-1.3570157E-1,9.361445E-2,-5.534365E-3,-2.8563344E-3,1.5772557E-2,-2.5197228E-2,4.995109E-2,4.4879463E-2,-2.3475157E-2,-1.870737E-2,1.0885119E-2,-9.152033E-3,1.1004582E-2,-2.4459548E-2,2.2920666E-3],"categories":[],"categories_nodes":[],"categories_segments":[],"categories_sizes":[],"default_left":[0,0,0,0,0,0,0,0,0,0,0,0,0,0,0,0,0,0,0,0,0,0,0,0,0],"id":37,"left_children":[1,3,5,7,9,-1,11,13,15,17,19,21,23,-1,-1,-1,-1,-1,-1,-1,-1,-1,-1,-1,-1],"loss_changes":[1.5034974E0,3.3037992E0,2.658429E0,3.2333221E0,3.2795095E0,0E0,2.1395926E0,2.7431076E0,1.6606097E0,2.9978652E0,3.535667E0,2.4435244E0,2.0453532E0,0E0,0E0,0E0,0E0,0E0,0E0,0E0,0E0,0E0,0E0,0E0,0E0],"parents":[2147483647,0,0,1,1,2,2,3,3,4,4,6,6,7,7,8,8,9,9,10,10,11,11,12,12],"right_children":[2,4,6,8,10,-1,12,14,16,18,20,22,24,-1,-1,-1,-1,-1,-1,-1,-1,-1,-1,-1,-1],"split_conditions":[3E0,5E0,2E0,2.4E1,2E0,6.361426E-4,7.2101E4,8.1647E4,7E0,3E0,5E0,2E0,6E0,-2.8563344E-3,1.5772557E-2,-2.5197228E-2,4.995109E-2,4.4879463E-2,-2.3475157E-2,-1.870737E-2,1.0885119E-2,-9.152033E-3,1.1004582E-2,-2.4459548E-2,2.2920666E-3],"split_indices":[7,0,20,18,18,0,11,11,16,2,6,18,16,0,0,0,0,0,0,0,0,0,0,0,0],"split_type":[0,0,0,0,0,0,0,0,0,0,0,0,0,0,0,0,0,0,0,0,0,0,0,0,0],"sum_hessian":[4.086368E3,7.988388E2,3.2875293E3,4.9300146E2,3.058373E2,2.1897295E3,1.0977997E3,4.7112585E2,2.1875626E1,2.702766E1,2.7880966E2,7.989468E2,2.9885297E2,3.7180768E2,9.9318184E1,2.8166847E0,1.905894E1,1.8140236E1,8.887425E0,2.3060294E2,4.820671E1,6.4756424E1,7.3419037E2,3.0980295E1,2.6787265E2],"tree_param":{"num_deleted":"0","num_feature":"21","num_nodes":"25","size_leaf_vector":"1"}},{"base_weights":[-8.997568E-3,1.14467286E-1,-2.9354233E-1,-6.973906E-2,2.8657883E-1,-4.594718E-1,-1.4931996E-1,-2.619736E-1,9.8336585E-2,1.0343791E-1,4.7117296E-1,-5.623905E-1,-3.6683282E-1,-3.4090835E-1,2.5929628E-2,-4.42001E-2,-9.324954E-3,-5.337731E-3,2.5739152E-2,-8.504613E-3,2.9283687E-2,3.0776396E-2,6.402752E-2,-6.330091E-2,-4.9265098E-2,-6.329145E-2,-3.2833666E-2,-6.2777124E-2,-2.915515E-2,-3.039704E-2,8.751444E-3],"categories":[],"categories_nodes":[],"categories_segments":[],"categories_sizes":[],"default_left":[0,0,0,0,0,0,0,0,0,0,0,0,0,0,0,0,0,0,0,0,0,0,0,0,0,0,0,0,0,0,0],"id":38,"left_children":[1,3,5,7,9,11,13,15,17,19,21,23,25,27,29,-1,-1,-1,-1,-1,-1,-1,-1,-1,-1,-1,-1,-1,-1,-1,-1],"loss_changes":[1.5190118E2,9.562254E1,3.1242134E1,4.7113E1,5.2659637E1,5.5898438E0,2.3561E1,2.0616634E1,1.8793945E1,2.8009686E1,2.1251358E1,1.0972061E0,3.098854E0,4.5626793E0,7.4886084E0,0E0,0E0,0E0,0E0,0E0,0E0,0E0,0E0,0E0,0E0,0E0,0E0,0E0,0E0,0E0,0E0],"parents":[2147483647,0,0,1,1,2,2,3,3,4,4,5,5,6,6,7,7,8,8,9,9,10,10,11,11,12,12,13,13,14,14],"right_children":[2,4,6,8,10,12,14,16,18,20,22,24,26,28,30,-1,-1,-1,-1,-1,-1,-1,-1,-1,-1,-1,-1,-1,-1,-1,-1],"split_conditions":[2E0,1E0,1E0,1E0,1E0,1E0,1E0,1E0,1E0,1E0,1E0,1E0,1.4679E4,1.5036E4,1.5036E4,-4.42001E-2,-9.324954E-3,-5.337731E-3,2.5739152E-2,-8.504613E-3,2.9283687E-2,3.0776396E-2,6.402752E-2,-6.330091E-2,-4.9265098E-2,-6.329145E-2,-3.2833666E-2,-6.2777124E-2,-2.915515E-2,-3.039704E-2,8.751444E-3],"split_indices":[19,17,17,19,19,14,14,14,14,14,14,12,11,11,11,0,0,0,0,0,0,0,0,0,0,0,0,0,0,0,0],"split_type":[0,0,0,0,0,0,0,0,0,0,0,0,0,0,0,0,0,0,0,0,0,0,0,0,0,0,0,0,0,0,0],"sum_hessian":[4.3218594E3,3.0144695E3,1.30739E3,1.4563607E3,1.5581089E3,6.0692737E2,7.0046265E2,6.790951E2,7.772656E2,7.829164E2,7.751925E2,2.851096E2,3.2181775E2,3.3418057E2,3.6628204E2,3.277589E2,3.5133615E2,3.9815323E2,3.791124E2,3.9268216E2,3.9023422E2,3.9566678E2,3.7952573E2,1.376489E2,1.4746071E2,3.872355E1,2.8309418E2,4.7337177E1,2.868434E2,5.700099E1,3.0928107E2],"tree_param":{"num_deleted":"0","num_feature":"21","num_nodes":"31","size_leaf_vector":"1"}},{"base_weights":[-8.583813E-3,2.5483763E-1,-3.2490742E-1,4.3616265E-1,-1.6056927E-2,-1.0529041E-1,-4.4542882E-1,6.1676216E-1,2.4590649E-1,2.0817356E-1,-2.4730569E-1,1.2403227E-1,-3.7868348E-1,-2.9882994E-1,-5.1435596E-1,8.140402E-2,5.5102456E-2,4.3154735E-2,-4.0559596E-3,4.3505047E-2,-3.3798781E-3,-6.282923E-3,-4.3835595E-2,3.340226E-2,-1.5075766E-2,-2.0704921E-2,-5.725071E-2,-1.4929707E-2,-4.5061667E-2,-4.3707695E-2,-5.619317E-2],"categories":[],"categories_nodes":[],"categories_segments":[],"categories_sizes":[],"default_left":[0,0,0,0,0,0,0,0,0,0,0,0,0,0,0,0,0,0,0,0,0,0,0,0,0,0,0,0,0,0,0],"id":39,"left_children":[1,3,5,7,9,11,13,15,17,19,21,23,25,27,29,-1,-1,-1,-1,-1,-1,-1,-1,-1,-1,-1,-1,-1,-1,-1,-1],"loss_changes":[3.1524475E2,1.0140318E2,4.5452576E1,4.233789E1,4.3020138E1,3.831639E1,1.1058365E1,7.7700653E0,3.2130672E1,2.3140923E1,1.4366364E1,1.9248842E1,9.1526985E0,8.041164E0,2.52417E0,0E0,0E0,0E0,0E0,0E0,0E0,0E0,0E0,0E0,0E0,0E0,0E0,0E0,0E0,0E0,0E0],"parents":[2147483647,0,0,1,1,2,2,3,3,4,4,5,5,6,6,7,7,8,8,9,9,10,10,11,11,12,12,13,13,14,14],"right_children":[2,4,6,8,10,12,14,16,18,20,22,24,26,28,30,-1,-1,-1,-1,-1,-1,-1,-1,-1,-1,-1,-1,-1,-1,-1,-1],"split_conditions":[7.8E1,2.0321825E1,1.1420963E1,1E0,3.9E1,1.2E2,1.01E2,5.0895195E0,4.7E1,1E0,1E0,1E0,1E0,2.2215118E1,1.22E2,8.140402E-2,5.5102456E-2,4.3154735E-2,-4.0559596E-3,4.3505047E-2,-3.3798781E-3,-6.282923E-3,-4.3835595E-2,3.340226E-2,-1.5075766E-2,-2.0704921E-2,-5.725071E-2,-1.4929707E-2,-4.5061667E-2,-4.3707695E-2,-5.619317E-2],"split_indices":[9,10,10,14,9,9,9,10,9,14,14,14,14,10,9,0,0,0,0,0,0,0,0,0,0,0,0,0,0,0,0],"split_type":[0,0,0,0,0,0,0,0,0,0,0,0,0,0,0,0,0,0,0,0,0,0,0,0,0,0,0,0,0,0,0],"sum_hessian":[3.781257E3,2.0632559E3,1.7180013E3,1.2355934E3,8.276625E2,6.094041E2,1.1085972E3,6.3273334E2,6.0286005E2,4.2025845E2,4.0740402E2,3.3171075E2,2.7769336E2,3.5624554E2,7.523517E2,1.5529907E2,4.7743427E2,3.6549744E2,2.3736263E2,2.164829E2,2.0377554E2,2.0794398E2,1.9946004E2,1.8790274E2,1.4380803E2,1.4837387E2,1.2931947E2,1.8045432E2,1.7579123E2,2.9056442E2,4.6178726E2],"tree_param":{"num_deleted":"0","num_feature":"21","num_nodes":"31","size_leaf_vector":"1"}},{"base_weights":[1.8160589E-2,3.161763E-2,-8.14879E-2,7.242683E-2,1.7982638E-4,-1.5044884E-1,5.8001004E-2,4.3902032E-2,1.2806624E-1,1.3000028E-2,-7.8530364E-2,-1.8327836E-2,-2.9205313E-1,6.034489E-1,2.894329E-2,8.593786E-3,-1.0297124E-3,-2.4059564E-3,1.7092431E-2,-5.0918553E-3,3.2067678E-3,-1.6680844E-2,9.745051E-3,7.1183466E-3,-2.4532378E-2,-1.4126007E-2,-4.6471663E-2,8.7495826E-2,-1.4175004E-2,3.2829326E-2,-2.426978E-3],"categories":[],"categories_nodes":[],"categories_segments":[],"categories_sizes":[],"default_left":[0,0,0,0,0,0,0,0,0,0,0,0,0,0,0,0,0,0,0,0,0,0,0,0,0,0,0,0,0,0,0],"id":40,"left_children":[1,3,5,7,9,11,13,15,17,19,21,23,25,27,29,-1,-1,-1,-1,-1,-1,-1,-1,-1,-1,-1,-1,-1,-1,-1,-1],"loss_changes":[5.4739165E0,4.612713E0,4.681039E0,2.477419E0,2.0513597E0,6.080861E0,2.5408356E0,2.360736E0,3.4577942E0,2.1322381E0,4.439739E0,3.4585927E0,4.0208626E0,1.7656462E0,2.465844E0,0E0,0E0,0E0,0E0,0E0,0E0,0E0,0E0,0E0,0E0,0E0,0E0,0E0,0E0,0E0,0E0],"parents":[2147483647,0,0,1,1,2,2,3,3,4,4,5,5,6,6,7,7,8,8,9,9,10,10,11,11,12,12,13,13,14,14],"right_children":[2,4,6,8,10,12,14,16,18,20,22,24,26,28,30,-1,-1,-1,-1,-1,-1,-1,-1,-1,-1,-1,-1,-1,-1,-1,-1],"split_conditions":[3.051755E1,2.78E2,2E0,2E0,2.6231012E1,1E0,4.514E3,3.3E1,3E0,2.4182E4,2E0,6.8325E4,1E0,3.9E1,1E0,8.593786E-3,-1.0297124E-3,-2.4059564E-3,1.7092431E-2,-5.0918553E-3,3.2067678E-3,-1.6680844E-2,9.745051E-3,7.1183466E-3,-2.4532378E-2,-1.4126007E-2,-4.6471663E-2,8.7495826E-2,-1.4175004E-2,3.2829326E-2,-2.426978E-3],"split_indices":[10,13,19,20,10,19,11,16,7,11,19,11,17,16,0,0,0,0,0,0,0,0,0,0,0,0,0,0,0,0,0],"split_type":[0,0,0,0,0,0,0,0,0,0,0,0,0,0,0,0,0,0,0,0,0,0,0,0,0,0,0,0,0,0,0],"sum_hessian":[4.079124E3,3.5944006E3,4.847235E2,1.5635122E3,2.0308883E3,3.243111E2,1.6041243E2,1.0347917E3,5.287204E2,1.7471499E3,2.8373843E2,1.6835774E2,1.5595334E2,7.113642E0,1.5329878E2,5.8246075E2,4.5233102E2,1.1631082E2,4.1240958E2,4.010568E2,1.3460931E3,1.8898776E2,9.4750656E1,1.2123684E2,4.7120907E1,8.421957E1,7.173377E1,5.0863357E0,2.027307E0,2.2357475E1,1.3094131E2],"tree_param":{"num_deleted":"0","num_feature":"21","num_nodes":"31","size_leaf_vector":"1"}},{"base_weights":[-9.721338E-3,-2.3905958E-1,3.6552235E-1,-4.173905E-1,-4.552045E-2,1.8575576E-1,5.538964E-1,-5.473597E-1,-2.9883692E-1,-2.927674E-1,1.598103E-1,-4.7949525E-3,3.8242084E-1,4.2520234E-1,6.8377465E-1,-6.149742E-2,-4.736757E-2,-4.8361797E-2,-1.4010186E-2,-4.5528572E-2,-1.3984414E-2,-5.390176E-3,3.7349444E-2,-1.0200341E-2,3.4956537E-2,2.8627405E-2,5.4925676E-2,1.4365531E-2,5.1256973E-2,5.5769878E-3,7.0967935E-2],"categories":[],"categories_nodes":[],"categories_segments":[],"categories_sizes":[],"default_left":[0,0,0,0,0,0,0,0,0,0,0,0,0,0,0,0,0,0,0,0,0,0,0,0,0,0,0,0,0,0,0],"id":41,"left_children":[1,3,5,7,9,11,13,15,17,19,21,23,25,27,29,-1,-1,-1,-1,-1,-1,-1,-1,-1,-1,-1,-1,-1,-1,-1,-1],"loss_changes":[3.686264E2,9.173944E1,5.492093E1,2.1154358E1,6.4828606E1,3.1215944E1,1.296286E1,2.99086E0,2.121923E1,1.4333252E1,3.1884851E1,1.4642257E1,6.4179497E0,9.788437E0,6.354004E0,0E0,0E0,0E0,0E0,0E0,0E0,0E0,0E0,0E0,0E0,0E0,0E0,0E0,0E0,0E0,0E0],"parents":[2147483647,0,0,1,1,2,2,3,3,4,4,5,5,6,6,7,7,8,8,9,9,10,10,11,11,12,12,13,13,14,14],"right_children":[2,4,6,8,10,12,14,16,18,20,22,24,26,28,30,-1,-1,-1,-1,-1,-1,-1,-1,-1,-1,-1,-1,-1,-1,-1,-1],"split_conditions":[1.07E2,6.3E1,1E0,1E0,1E0,1E0,1E0,3.5E1,1E0,1E0,1E0,1.48E2,1.41E2,1.19E2,4.939E3,-6.149742E-2,-4.736757E-2,-4.8361797E-2,-1.4010186E-2,-4.5528572E-2,-1.3984414E-2,-5.390176E-3,3.7349444E-2,-1.0200341E-2,3.4956537E-2,2.8627405E-2,5.4925676E-2,1.4365531E-2,5.1256973E-2,5.5769878E-3,7.0967935E-2],"split_indices":[9,9,17,14,17,14,14,9,17,14,14,9,9,9,11,0,0,0,0,0,0,0,0,0,0,0,0,0,0,0,0],"split_type":[0,0,0,0,0,0,0,0,0,0,0,0,0,0,0,0,0,0,0,0,0,0,0,0,0,0,0,0,0,0,0],"sum_hessian":[4.281463E3,2.6575854E3,1.6238774E3,1.3825339E3,1.2750515E3,8.3193884E2,7.919386E2,6.577889E2,7.2474506E2,5.782871E2,6.967644E2,4.2303336E2,4.0890552E2,3.9992932E2,3.9200928E2,3.391913E2,3.1859756E2,3.3395105E2,3.9079398E2,2.793899E2,2.9889722E2,3.4873325E2,3.4803113E2,3.3252652E2,9.050684E1,2.6113214E2,1.4777338E2,9.533864E1,3.045907E2,1.5654405E1,3.763549E2],"tree_param":{"num_deleted":"0","num_feature":"21","num_nodes":"31","size_leaf_vector":"1"}},{"base_weights":[-9.685367E-3,1.531926E-1,-2.0486014E-1,3.071843E-1,-2.3807684E-2,-8.2267135E-2,-3.4118083E-1,6.781434E-1,2.4565643E-1,3.1118548E-1,-8.230276E-2,2.2770849E-1,-1.3718672E-1,-7.0179984E-2,-3.8431364E-1,9.194919E-2,5.7625324E-2,4.0868413E-2,1.4812867E-2,3.8033135E-2,7.577485E-3,-2.82651E-3,-2.650246E-2,3.070474E-2,-1.6428797E-2,-2.3449862E-3,-2.6466617E-2,9.235058E-3,-2.3503786E-2,-2.4816146E-2,-4.257932E-2],"categories":[],"categories_nodes":[],"categories_segments":[],"categories_sizes":[],"default_left":[0,0,0,0,0,0,0,0,0,0,0,0,0,0,0,0,0,0,0,0,0,0,0,0,0,0,0,0,0,0,0],"id":42,"left_children":[1,3,5,7,9,11,13,15,17,19,21,23,25,27,29,-1,-1,-1,-1,-1,-1,-1,-1,-1,-1,-1,-1,-1,-1,-1,-1],"loss_changes":[1.1868943E2,5.5480263E1,2.8355263E1,2.4675797E1,1.8598118E1,1.5276575E1,9.369263E0,3.263939E0,1.4807949E1,2.2680645E0,7.9675303E0,4.254024E0,1.1033034E1,3.011907E0,3.809494E0,0E0,0E0,0E0,0E0,0E0,0E0,0E0,0E0,0E0,0E0,0E0,0E0,0E0,0E0,0E0,0E0],"parents":[2147483647,0,0,1,1,2,2,3,3,4,4,5,5,6,6,7,7,8,8,9,9,10,10,11,11,12,12,13,13,14,14],"right_children":[2,4,6,8,10,12,14,16,18,20,22,24,26,28,30,-1,-1,-1,-1,-1,-1,-1,-1,-1,-1,-1,-1,-1,-1,-1,-1],"split_conditions":[1.8111631E1,1E0,1E0,1.5036E4,1.5036E4,1.5036E4,1.3955E4,5.8057947E0,6.614617E0,1.3760624E1,1.3929589E1,3.1871553E1,2.6914211E1,2.5837181E1,2.1817806E1,9.194919E-2,5.7625324E-2,4.0868413E-2,1.4812867E-2,3.8033135E-2,7.577485E-3,-2.82651E-3,-2.650246E-2,3.070474E-2,-1.6428797E-2,-2.3449862E-3,-2.6466617E-2,9.235058E-3,-2.3503786E-2,-2.4816146E-2,-4.257932E-2],"split_indices":[10,14,14,11,11,11,11,10,10,10,10,10,10,10,10,0,0,0,0,0,0,0,0,0,0,0,0,0,0,0,0],"split_type":[0,0,0,0,0,0,0,0,0,0,0,0,0,0,0,0,0,0,0,0,0,0,0,0,0,0,0,0,0,0,0],"sum_hessian":[3.731598E3,2.0342136E3,1.6973844E3,1.0874166E3,9.4679694E2,8.945344E2,8.0285E2,1.5327586E2,9.341408E2,1.401065E2,8.066904E2,1.3416089E2,7.6037354E2,1.1059782E2,6.9225214E2,4.3117825E1,1.1015804E2,3.4846133E2,5.8567944E2,1.0782119E2,3.2285316E1,6.234637E2,1.8322675E2,1.11758095E2,2.240279E1,4.024725E2,3.57901E2,5.5913483E1,5.4684334E1,1.6328127E2,5.289709E2],"tree_param":{"num_deleted":"0","num_feature":"21","num_nodes":"31","size_leaf_vector":"1"}},{"base_weights":[1.9867726E-2,6.875592E-2,-1.3044322E-1,-2.283846E-3,1.3705407E-1,5.5576347E-2,-3.5098118E-1,-2.334766E-1,1.2444574E-1,2.2353472E-1,2.9994782E-2,2.3099731E-1,-2.8027067E-1,-5.1000956E-2,-4.7981295E-1,-4.577854E-2,-7.3370375E-3,-3.4530198E-3,1.8842552E-2,5.9942673E-3,3.0052403E-2,2.5486162E-2,-1.18396245E-2,2.8966507E-2,-4.9105706E-4,-1.740267E-2,-4.6323374E-2,1.790875E-2,-2.7096068E-2,-1.55888675E-2,-5.3939562E-2],"categories":[],"categories_nodes":[],"categories_segments":[],"categories_sizes":[],"default_left":[0,0,0,0,0,0,0,0,0,0,0,0,0,0,0,0,0,0,0,0,0,0,0,0,0,0,0,0,0,0,0],"id":43,"left_children":[1,3,5,7,9,11,13,15,17,19,21,23,25,27,29,-1,-1,-1,-1,-1,-1,-1,-1,-1,-1,-1,-1,-1,-1,-1,-1],"loss_changes":[2.9893652E1,1.4892567E1,4.097977E1,4.4137894E1,1.4482014E1,3.202401E1,1.7636024E1,1.9122208E1,9.903973E0,1.0882706E1,2.3401579E1,4.9408474E0,3.546217E0,7.053502E0,6.083496E0,0E0,0E0,0E0,0E0,0E0,0E0,0E0,0E0,0E0,0E0,0E0,0E0,0E0,0E0,0E0,0E0],"parents":[2147483647,0,0,1,1,2,2,3,3,4,4,5,5,6,6,7,7,8,8,9,9,10,10,11,11,12,12,13,13,14,14],"right_children":[2,4,6,8,10,12,14,16,18,20,22,24,26,28,30,-1,-1,-1,-1,-1,-1,-1,-1,-1,-1,-1,-1,-1,-1,-1,-1],"split_conditions":[1.19E2,1E0,1E0,4.8E1,6.9E1,2.2844664E1,1.0144506E1,1.5885709E1,1.0515674E1,1.1661995E1,1.4335455E1,1.51E2,3.0098139E1,1.39E2,1.5036E4,-4.577854E-2,-7.3370375E-3,-3.4530198E-3,1.8842552E-2,5.9942673E-3,3.0052403E-2,2.5486162E-2,-1.18396245E-2,2.8966507E-2,-4.9105706E-4,-1.740267E-2,-4.6323374E-2,1.790875E-2,-2.7096068E-2,-1.55888675E-2,-5.3939562E-2],"split_indices":[9,17,17,9,9,10,10,10,10,10,10,9,10,9,11,0,0,0,0,0,0,0,0,0,0,0,0,0,0,0,0],"split_type":[0,0,0,0,0,0,0,0,0,0,0,0,0,0,0,0,0,0,0,0,0,0,0,0,0,0,0,0,0,0,0],"sum_hessian":[4.065812E3,3.0683748E3,9.974373E2,1.5044745E3,1.5639001E3,5.4146765E2,4.5596964E2,5.323911E2,9.720834E2,8.644912E2,6.9940894E2,3.5588998E2,1.8557768E2,1.3741039E2,3.1855927E2,2.209629E2,3.1142822E2,2.790829E2,6.930005E2,2.7721817E2,5.872731E2,2.777692E2,4.2163974E2,2.8482834E2,7.106163E1,1.1863767E2,6.694001E1,6.724974E1,7.0160645E1,5.005409E1,2.685052E2],"tree_param":{"num_deleted":"0","num_feature":"21","num_nodes":"31","size_leaf_vector":"1"}},{"base_weights":[-1.0576307E-2,-2.2800598E-1,3.4233785E-1,-4.214921E-1,-6.400978E-2,1.6834432E-1,5.273018E-1,-5.5442053E-1,-3.151638E-1,-2.9075766E-1,1.255002E-1,7.686298E-2,4.044819E-1,2.355624E-1,5.768263E-1,-6.1799403E-2,-4.758486E-2,-4.646133E-2,-1.9361077E-2,-4.419256E-2,-1.378212E-2,-5.5066613E-3,3.15719E-2,-8.434194E-3,2.2072142E-2,1.8436724E-4,4.5447543E-2,-5.77478E-3,3.3050172E-2,5.1126696E-2,6.812867E-2],"categories":[],"categories_nodes":[],"categories_segments":[],"categories_sizes":[],"default_left":[0,0,0,0,0,0,0,0,0,0,0,0,0,0,0,0,0,0,0,0,0,0,0,0,0,0,0,0,0,0,0],"id":44,"left_children":[1,3,5,7,9,11,13,15,17,19,21,23,25,27,29,-1,-1,-1,-1,-1,-1,-1,-1,-1,-1,-1,-1,-1,-1,-1,-1],"loss_changes":[3.240023E2,8.2876236E1,5.17155E1,1.6763535E1,6.0852818E1,1.7918549E1,1.1130646E1,2.3596344E0,1.2047424E1,1.4842598E1,2.652132E1,1.3936149E1,4.6648026E0,3.2173634E0,4.212219E0,0E0,0E0,0E0,0E0,0E0,0E0,0E0,0E0,0E0,0E0,0E0,0E0,0E0,0E0,0E0,0E0],"parents":[2147483647,0,0,1,1,2,2,3,3,4,4,5,5,6,6,7,7,8,8,9,9,10,10,11,11,12,12,13,13,14,14],"right_children":[2,4,6,8,10,12,14,16,18,20,22,24,26,28,30,-1,-1,-1,-1,-1,-1,-1,-1,-1,-1,-1,-1,-1,-1,-1,-1],"split_conditions":[1.07E2,5.7E1,1E0,1E0,1E0,1.45E2,1.5036E4,3.3E1,2.8E1,1E0,1E0,1E0,1.3955E4,4.514E3,1.39E2,-6.1799403E-2,-4.758486E-2,-4.646133E-2,-1.9361077E-2,-4.419256E-2,-1.378212E-2,-5.5066613E-3,3.15719E-2,-8.434194E-3,2.2072142E-2,1.8436724E-4,4.5447543E-2,-5.77478E-3,3.3050172E-2,5.1126696E-2,6.812867E-2],"split_indices":[9,9,17,17,17,9,11,9,9,12,12,12,11,11,9,0,0,0,0,0,0,0,0,0,0,0,0,0,0,0,0],"split_type":[0,0,0,0,0,0,0,0,0,0,0,0,0,0,0,0,0,0,0,0,0,0,0,0,0,0,0,0,0,0,0],"sum_hessian":[4.220391E3,2.611689E3,1.6087021E3,1.1974006E3,1.4142882E3,8.299179E2,7.7878424E2,5.30265E2,6.671356E2,6.436406E2,7.706476E2,5.991345E2,2.3078337E2,1.13853134E2,6.649311E2,2.89313E2,2.4095206E2,2.979651E2,3.6917053E2,3.227416E2,3.2089902E2,3.957187E2,3.7492886E2,2.827284E2,3.1640613E2,2.5604738E1,2.0517863E2,2.7936491E1,8.591664E1,4.1215616E2,2.5277495E2],"tree_param":{"num_deleted":"0","num_feature":"21","num_nodes":"31","size_leaf_vector":"1"}},{"base_weights":[-1.00863585E-2,2.3014203E-1,-3.0907205E-1,3.9513218E-1,-1.740152E-2,-9.914903E-2,-4.2833063E-1,5.687245E-1,2.8530052E-1,1.894545E-1,-2.3441745E-1,1.1023985E-1,-3.5996532E-1,-2.862843E-1,-4.982235E-1,7.7003784E-2,5.0860185E-2,6.8598084E-2,2.1514667E-2,5.660224E-2,1.2721536E-2,1.33597255E-2,-2.9468015E-2,5.8161672E-2,1.975313E-3,3.7481461E-3,-4.2734787E-2,-1.4346122E-2,-4.3504477E-2,-3.2418724E-2,-5.2363392E-2],"categories":[],"categories_nodes":[],"categories_segments":[],"categories_sizes":[],"default_left":[0,0,0,0,0,0,0,0,0,0,0,0,0,0,0,0,0,0,0,0,0,0,0,0,0,0,0,0,0,0,0],"id":45,"left_children":[1,3,5,7,9,11,13,15,17,19,21,23,25,27,29,-1,-1,-1,-1,-1,-1,-1,-1,-1,-1,-1,-1,-1,-1,-1,-1],"loss_changes":[2.6616165E2,8.392865E1,4.128891E1,2.3346527E1,3.697866E1,3.2774982E1,1.0306808E1,5.3794403E0,2.1137146E1,9.813592E0,8.953926E0,1.4202867E1,7.170891E0,7.3621273E0,2.9438934E0,0E0,0E0,0E0,0E0,0E0,0E0,0E0,0E0,0E0,0E0,0E0,0E0,0E0,0E0,0E0,0E0],"parents":[2147483647,0,0,1,1,2,2,3,3,4,4,5,5,6,6,7,7,8,8,9,9,10,10,11,11,12,12,13,13,14,14],"right_children":[2,4,6,8,10,12,14,16,18,20,22,24,26,28,30,-1,-1,-1,-1,-1,-1,-1,-1,-1,-1,-1,-1,-1,-1,-1,-1],"split_conditions":[7.8E1,2.0321825E1,1.1420963E1,3.2E1,3.9E1,1.2E2,1.01E2,5.0895195E0,1.5036E4,1.5036E4,1.4679E4,1.5036E4,1.5472E4,2.2215118E1,1.1553E4,7.7003784E-2,5.0860185E-2,6.8598084E-2,2.1514667E-2,5.660224E-2,1.2721536E-2,1.33597255E-2,-2.9468015E-2,5.8161672E-2,1.975313E-3,3.7481461E-3,-4.2734787E-2,-1.4346122E-2,-4.3504477E-2,-3.2418724E-2,-5.2363392E-2],"split_indices":[9,10,10,9,9,9,9,10,11,11,11,11,11,10,11,0,0,0,0,0,0,0,0,0,0,0,0,0,0,0,0],"split_type":[0,0,0,0,0,0,0,0,0,0,0,0,0,0,0,0,0,0,0,0,0,0,0,0,0,0,0,0,0,0,0],"sum_hessian":[3.703714E3,2.0537786E3,1.6499354E3,1.2320255E3,8.2175305E2,5.984155E2,1.0515199E3,4.7581183E2,7.5621375E2,4.2078995E2,4.0096307E2,3.3225302E2,2.661625E2,3.4844876E2,7.0307117E2,1.0670747E2,3.6910434E2,1.1136718E2,6.4484656E2,5.8535576E1,3.622544E2,5.6248077E1,3.44715E2,5.263441E1,2.7961862E2,3.864775E1,2.2751476E2,1.7877422E2,1.6967453E2,9.132725E1,6.117439E2],"tree_param":{"num_deleted":"0","num_feature":"21","num_nodes":"31","size_leaf_vector":"1"}},{"base_weights":[2.003924E-2,4.2493373E-2,-5.0082285E-2,9.5352426E-2,2.284107E-2,-1.1077189E-1,7.092447E-2,-1.2116234E-1,1.0695053E-1,-5.940409E-2,4.22842E-2,2.841726E-3,-2.3602718E-1,6.242354E-5,1.4886045E-1,7.317687E-3,-3.0236581E-2,7.885834E-2,1.029776E-2,-1.5847279E-2,4.3041296E-3,1.0104499E-2,